text,0,1,2,3,4,5,6,7,8,9,10,11,12,13,14,15,16,17,18,19,20,21,22,23,24,25,26,27,28,29,30,31,32,33,34,35,36,37,38,39,40,41,42,43,44,45,46,47,48,49,50,51,52,53,54,55,56,57,58,59,60,61,62,63,64,65,66,67,68,69,70,71,72,73,74,75,76,77,78,79,80,81,82,83,84,85,86,87,88,89,90,91,92,93,94,95,96,97,98,99,100,101,102,103,104,105,106,107,108,109,110,111,112,113,114,115,116,117,118,119,120,121,122,123,124,125,126,127,128,129,130,131,132,133,134,135,136,137,138,139,140,141,142,143,144,145,146,147,148,149,150,151,152,153,154,155,156,157,158,159,160,161,162,163,164,165,166,167,168,169,170,171,172,173,174,175,176,177,178,179,180,181,182,183,184,185,186,187,188,189,190,191,192,193,194,195,196,197,198,199,200,201,202,203,204,205,206,207,208,209,210,211,212,213,214,215,216,217,218,219,220,221,222,223,224,225,226,227,228,229,230,231,232,233,234,235,236,237,238,239,240,241,242,243,244,245,246,247,248,249,250,251,252,253,254,255,256,257,258,259,260,261,262,263,264,265,266,267,268,269,270,271,272,273,274,275,276,277,278,279,280,281,282,283,284,285,286,287,288,289,290,291,292,293,294,295,296,297,298,299,300,301,302,303,304,305,306,307,308,309,310,311,312,313,314,315,316,317,318,319,320,321,322,323,324,325,326,327,328,329,330,331,332,333,334,335,336,337,338,339,340,341,342,343,344,345,346,347,348,349,350,351,352,353,354,355,356,357,358,359,360,361,362,363,364,365,366,367,368,369,370,371,372,373,374,375,376,377,378,379,380,381,382,383
product,-0.088460214,0.043446783,-0.00024388188,-0.0009588362,0.03243634,-0.031760212,0.18268181,0.09572854,-0.0065862187,-0.012965795,0.023900125,-0.035441622,0.05206331,0.011154392,-0.06063403,0.03420306,0.00853901,0.04111462,-0.15756103,-0.025844246,-0.04710524,0.040307637,-0.0044060573,0.04767118,-0.07670944,0.07761107,-0.005858101,0.019149011,0.071740836,-0.09014024,0.041556694,-0.022564318,0.048356447,-0.023825923,0.028934432,0.019201064,-0.0025440182,-0.02754872,-0.05305435,-0.017182209,0.010959289,-0.120095134,-0.087143235,-0.0070351516,0.0301065,0.039477948,0.053985704,0.05030193,0.027054701,0.062483687,-0.090173446,-0.00549333,-0.00563185,-0.016174793,-0.012256975,0.008149918,-0.0153470775,0.021356622,-0.015988603,-0.034960814,0.076326884,-0.031097487,-0.1050568,0.04345665,0.048335806,0.0037634338,0.0057932837,-0.06524105,-0.08695393,0.04176349,0.019989474,0.04690677,-0.020200461,0.02700326,0.0338858,0.015426089,0.04394515,-0.037015818,0.08472976,0.023056842,0.03422983,-0.001393823,-0.060575474,0.01752842,-0.0018964058,-0.023228131,0.021956189,-0.0035010765,-0.01227258,0.04736121,-0.03888614,0.018056674,0.0056007337,-0.02615281,-0.09768292,-0.008340629,0.015477103,-0.06536077,0.015166654,0.24168868,-0.022734132,0.023448342,-0.0062653217,-0.13483727,-0.051979654,-0.016298639,-0.07977228,0.04565879,0.05378912,0.035379898,-0.092759974,-0.041415047,-0.076943174,0.05207775,-0.0145056555,-0.009124504,-0.045794535,0.037190024,0.013465377,-0.04855977,0.03178573,0.029729038,0.06059089,0.02148141,-0.10355369,-0.04846274,0.02211015,-2.8894235e-33,0.0010032814,-0.042188846,-0.02763749,0.041641343,-0.07405634,0.016718965,-0.011559759,-0.028762467,0.008981911,0.05736209,-0.03579998,0.07174316,0.03021037,0.070151836,0.16278511,0.037714824,0.0032977709,0.019196974,0.006078028,-0.026274215,-0.06940297,0.048738178,-0.019766686,0.098493904,-0.0414194,-0.07888022,0.035406914,-0.034841396,0.039242893,0.0120272925,0.054838456,0.03573555,0.082018346,-0.09817188,-0.053300314,0.0006764253,-0.004234487,-0.14604892,0.019742643,0.054073848,-0.023051586,0.0025413258,0.0042178715,0.0502728,-0.03089941,0.013844969,-0.004320016,0.022464842,-0.034613054,-0.00022671687,-0.017683158,0.020211192,-0.0063440674,-0.016980741,-0.013842193,-0.015007634,-0.029298294,-0.04444894,0.041342456,0.018233186,0.016184343,0.11387603,0.0021147437,-0.0006554127,-0.0676315,-0.027322713,0.054883577,-0.039268065,-0.0026478395,0.01651903,-0.075721934,-0.020527324,0.1057497,-0.023528544,0.02235013,-0.018386727,-0.022634827,0.015013086,-0.028827474,-0.0008513263,-0.0320203,-0.0021436063,0.028261872,0.05352098,-0.03998273,-0.001643984,-0.05589199,-0.09608005,0.053660024,0.02848193,0.000109978704,0.0195479,-0.007460997,0.043448787,-0.04359907,2.7234167e-33,-0.060115084,-0.059618887,0.05415545,0.032194283,0.06577806,-0.029254423,0.013643119,-0.057534523,-0.0233635,0.08180813,-0.067067154,-0.05945443,0.060493678,0.03434175,-0.05749944,0.14065008,0.12830709,-0.03032929,0.047945585,-0.063758045,-0.024768027,0.001734839,-0.036579475,-0.037002105,-0.054856,-0.015580096,0.04912794,-0.0263718,0.031168107,0.016307024,0.0820121,-0.052684236,-0.09002715,0.032760657,0.0027397817,0.08322746,0.09185683,-0.0258735,0.006548939,-0.07587202,0.045449108,-0.029639043,0.031170294,0.10515772,-0.008710329,-0.025136795,0.015636781,-0.03243045,0.043524668,0.033173632,-0.026559707,0.016759787,0.030720305,-0.08344827,-0.081436776,-0.0077239475,0.030408904,-0.018062126,-0.0012883059,-0.008472044,-0.04093349,0.035491887,-0.00031778804,0.030009916,0.015817119,0.009411451,0.016104795,-0.0018887019,0.017989384,0.020103231,0.08984103,0.060646478,-0.0770506,0.0087650865,-0.030333716,-0.035255257,-0.0965583,0.014046149,-0.0176585,-0.023934603,-0.020668307,-0.07022271,-0.04150765,0.016760921,-0.046797115,-0.05207667,0.014251169,0.014209876,-0.02474027,0.015255554,-0.05403736,0.03631309,-0.11638864,0.08131032,0.059082966,-1.3296307e-08,0.016630879,-0.017466467,0.09253418,0.02686523,0.02261216,0.033451844,-0.03570852,0.0124470405,0.0011171502,0.051405355,0.049477674,0.064282335,-0.0080875475,0.108216636,0.062298495,-0.006069858,-0.083294086,0.04367476,-0.039402444,-0.039319795,0.0038020553,0.04023876,0.07177467,-0.032447074,-0.08445013,-0.04922283,0.035282332,0.113489434,0.0036207426,-0.044545077,0.023050558,0.07456037,-0.012406999,-0.020952243,0.026382169,-0.08563427,-0.0018959227,0.03326402,0.035882737,0.076154076,-0.04487478,-0.053238742,0.010776885,-0.021820925,-0.02477382,-0.016536983,0.01019475,-0.023528293,-0.03886476,0.026289493,0.027732033,0.019711448,0.033696618,-0.009193516,0.044283845,0.004851108,0.0395727,-0.0396394,-0.029140005,0.03825166,0.09640236,-0.012719426,0.047275785,0.034220688
name,-0.1606511,0.047666315,-0.095634066,0.05981916,-0.067256056,-0.04010756,0.14594401,0.03696348,-0.03881624,-0.047539584,-0.014160839,-0.112717964,-0.0062353085,-0.004337971,-0.07962285,0.07040128,-0.0086468505,0.05395012,-0.04279947,-0.096219234,-0.0722362,0.025215987,-0.026786776,-0.010657599,-0.035762776,0.011062091,-0.06733821,0.04800645,-0.04049977,-0.12124115,0.058142792,-0.00012195562,0.043073412,0.03698946,-0.05939176,0.012657815,-0.12669171,0.032380503,0.0043664533,-0.050578225,0.02171999,-0.071526654,-0.038746595,-0.033047475,-0.036640156,-0.06720637,0.032605246,-0.014138653,0.05145101,0.06441274,-0.09240656,-0.07144221,-0.06188327,0.01191946,0.0385602,-0.044185676,0.028310582,0.051023256,0.010977578,0.015814355,0.023034284,-0.013310409,-0.053509872,0.025221337,-0.008921737,-0.0016198703,-0.0013617966,-0.011237519,0.004315097,-0.049231995,-0.015377357,0.012232576,-0.014357378,-0.016469816,0.015643746,-0.026824381,0.0016427428,0.008668765,0.015940137,0.01227522,-0.04680057,0.023041096,-0.112270184,-0.07852461,0.0013248904,0.09059934,-0.026124371,0.01620818,-0.03500995,-0.017135283,-0.064074025,-0.01082156,0.06813955,-0.0064449925,-0.015793983,0.0024663662,0.01138825,-0.028537525,-0.09365061,0.28496653,-0.03311488,0.02867038,-0.04154662,0.07332714,0.0013363702,-0.07597906,0.01471141,0.007361906,-0.026369922,-0.0057318793,-0.031744234,0.019685738,-0.04277803,0.0353824,0.03728474,-0.012569713,0.008598787,-0.01711148,0.011888,-0.06430156,0.06327245,0.017753497,-0.058691785,-0.035174523,-0.039109197,3.7382535e-05,0.040073317,-4.062852e-33,-0.0026518265,-0.0073283794,0.089653775,0.15125205,0.029474359,-0.017724834,0.014117063,0.042282514,-0.030461164,0.060072754,0.0530411,-0.026160127,-0.06348783,-0.01723919,0.058456965,0.029781424,-0.01221585,0.036649413,-0.058712192,0.018775672,0.012310689,0.044336237,0.0072934837,0.022245413,-0.0022645306,-0.09059924,0.02656086,-0.034468748,0.0604132,0.041184444,-0.0031503283,-0.0049197315,0.06080624,0.007496923,0.028422633,-0.028620096,0.005508842,-0.04068197,0.027520146,0.051190745,-0.024222016,0.010970797,-0.03455693,0.018046806,-0.04614368,-0.0026447654,0.05390786,0.02546252,0.012366493,-0.027486065,-0.046433687,0.006585985,-0.130046,-0.008865285,-0.11572218,0.019197773,0.011631492,0.033354305,-0.0062346,-0.04202947,0.022653168,0.038944684,-0.034198876,0.004502012,-0.01161184,-0.084794335,0.040262472,-0.084978,0.004890202,-0.0030715982,-0.073494695,-0.0063919025,0.061646726,-0.005278168,-0.010506466,-0.0034046525,-0.0044885385,-0.008256771,-0.04603966,0.02761965,-0.059389643,0.05775573,-0.029886348,0.03149109,-0.052961387,0.002055347,0.0027807537,-0.052691128,-0.04898576,-0.031890977,-0.12278597,-0.010458683,0.03067906,0.008827305,-0.040152524,1.877622e-33,-0.025374526,0.0041656974,-0.032763686,0.08901089,0.049041178,-0.027096156,0.03920796,0.13795045,-0.03150011,0.040643908,-0.014203926,-0.041746665,0.06502686,-0.012201124,0.044196032,0.06771958,0.052471817,0.0051471684,-0.04962259,-0.005632193,-0.032559894,-0.02851243,-0.0688584,-0.06368441,-0.04682745,0.0035471057,0.050293762,0.052414007,-0.05207526,0.014207549,0.04382015,0.02746446,-0.040880978,0.06237219,-0.0113237845,0.12547451,0.11736529,0.015779579,0.0047553848,0.018099468,0.053419158,0.01881742,-0.027544381,0.11960792,0.017045418,-0.054013286,-0.04660591,0.06550003,0.049508374,0.03570665,-0.03002438,0.0032791838,-0.066200204,0.0003584906,0.023793671,0.064324245,0.0110440105,0.015716065,-0.010961942,0.0050258604,0.0015194874,0.04956231,-0.0035462123,0.030451993,0.032022294,0.018065399,-0.094920844,-0.07951079,-0.007079894,-0.035465028,0.02380998,0.013792219,-0.03100166,0.03908656,-0.06022352,0.018903445,-0.1070362,0.01234588,-0.025135733,0.022601288,-0.013317303,-0.022930007,-0.07650518,0.07545055,-0.0003332892,-0.007483591,0.07419331,0.077293254,-0.040222954,-0.046687823,-0.039244756,0.011333899,0.048316248,-0.054728843,-0.051947057,-1.5291347e-08,-0.0070004193,-0.03676433,0.043423373,0.008693681,0.09489933,0.08447029,0.00199076,-0.0009741786,0.032684565,0.02537566,0.102367386,0.017682975,0.09550703,0.047929298,0.079026975,-0.047936555,-0.025025414,0.1127308,-0.0073951855,0.028942952,-0.0040496397,-0.037289422,0.03682698,-0.053634122,0.06099331,0.025497494,0.019563708,0.09368755,-0.034435276,0.038100366,-0.03735697,0.13041708,-0.012449334,-0.0018287539,0.032005932,0.028532797,0.005434658,0.016302094,0.022419918,0.06165258,-0.0161297,0.039711382,0.14246877,-0.06386934,-0.037967578,0.051243685,-0.004074087,-0.030910473,0.03559286,0.0030551525,-0.057657253,0.0023245772,0.06481776,0.011168036,0.0028681757,0.059122596,-0.0044530435,0.0025071204,-0.02107592,-0.03109583,0.090540014,-0.020250242,0.031732507,0.030874481
Laptop,-0.05419766,0.07089286,0.0029647546,0.0003745247,0.006317926,-0.0037507687,0.058778174,0.038964342,0.09810213,-0.0060450328,0.06876416,0.0041735424,0.02799413,-0.018868046,0.036325358,-0.03464351,0.03799782,-0.1453032,-0.040384036,-0.0701945,-0.06609674,0.006835195,-0.055710126,-0.00905875,0.010284176,-0.007012607,0.01186811,-0.00047441496,-0.08442074,-0.04953917,-0.007516791,-0.021928722,-0.037275054,0.06211305,-0.03755226,-0.07914394,0.012903287,0.020320345,0.077558115,-0.10432831,-0.06567544,-0.08322656,0.07416141,-0.0252034,0.083039604,0.014365481,0.018120913,0.048819195,0.06828142,0.036442015,0.0060282866,0.0042610588,-0.037047483,-0.0016201718,-0.061214324,0.006892922,0.016822096,0.04259626,-0.014495937,-0.005746046,0.08067348,-0.081985995,-0.062313884,0.03530633,-0.0007593371,-0.0540706,-0.0073020826,-0.056939695,-0.0137029085,0.05949823,-0.014123939,0.051704533,0.020364461,0.025927208,-0.020322656,-0.061784368,0.025213603,0.021055602,0.050666768,0.030397823,-0.029201178,0.039170474,-0.037029993,0.07085758,-0.0038084441,-0.030204007,-0.035872582,0.043089632,-0.09866542,-0.07942452,-0.024677563,-0.006909037,-0.029227238,0.0061650723,-0.14349312,-0.026648989,0.080324285,-0.05667388,-0.03787751,0.21403727,0.021735478,0.042266093,0.09618256,-0.0108679775,-0.012851765,-0.033373807,-0.007881438,0.04899688,0.008217956,-0.044223923,-0.07160212,-0.030289287,-0.07103183,0.018028164,0.005757206,-0.038604207,-0.045326605,0.025251435,0.012465377,0.04570604,-0.039350588,0.01317342,0.025731208,-0.045822836,-0.05955154,-0.04099714,-0.0045065316,-3.4665226e-33,0.064822696,-0.053247172,-0.00061334146,-0.010303478,-0.022193285,0.031086138,0.036306087,-0.03549087,0.0009848046,0.052648082,-0.021156672,-0.026404545,-0.02623512,-0.004481848,0.15707795,0.008403547,0.030873038,0.045894217,-0.10749073,-0.030528743,0.003833854,-0.027393956,0.011488998,0.009783258,-0.0012846941,-0.0076112994,-0.057390362,-0.03041453,0.016791591,0.051083285,0.014927174,-0.03333433,-0.07454942,-0.10931288,-0.053447235,-0.011114749,-0.01008659,-0.059686843,0.10730145,-0.022922859,-0.059425376,0.062437054,-0.025058502,-0.043167625,0.023646543,0.042778455,0.050493684,0.10255485,-0.028636254,0.07466232,-0.06621068,-0.020946298,0.04875589,-0.013093728,-0.040623363,0.013104188,0.057393912,0.019976875,0.08369085,0.024342434,0.10168458,0.045874335,0.0056185634,0.0005199281,-0.016443785,0.025435245,0.12176049,0.012631459,-0.0056167794,-0.038486134,-0.05219246,-0.08904897,0.045276903,0.006974415,0.011535932,0.0024982446,-0.023478137,0.00011396373,-0.12283286,0.00085186656,-0.040729087,-0.037160836,0.02510505,0.007930246,-0.01857905,0.08056584,-0.10560915,-0.11137595,-0.0038040525,0.036054533,-0.020428553,0.014083895,-0.029999752,0.033786785,0.010339004,2.7005008e-33,-0.008820151,-0.015715724,0.009653146,0.00941945,0.08583586,-0.011294265,0.007878908,0.00013999156,-0.08106102,0.01993111,-0.020768484,0.0101389615,0.03897291,-0.008624637,0.1045825,0.046216846,0.017497817,-0.008043548,0.025933066,0.023658669,-0.062187802,-0.035857335,0.01586878,-0.072819635,-0.014660046,0.0072767665,-0.049026895,0.0091707315,-0.02538514,0.021263745,-0.00043926586,-0.042371504,-0.000100382706,0.07085667,0.0804387,-0.018036531,0.050861437,-0.032980308,0.03810976,0.00324607,0.11769215,0.03216433,0.015695231,0.12514518,0.05238464,-0.037451237,-0.100631826,-0.05784117,0.08352637,-0.03612632,0.012411458,-0.024867097,0.062931135,-0.049210463,0.00017468106,-0.04580515,-0.055430885,0.05096972,0.077337176,-0.0622134,-0.023670863,-0.01714031,-0.03598608,0.03122904,-0.05484767,0.029261027,0.043222703,0.06730105,0.019532515,-0.05095638,0.007891172,-0.03576359,0.03697206,0.028588701,-0.051041193,-0.049292065,-0.026083997,-0.00862029,-0.014828428,0.02359327,0.08384919,-0.03251465,-0.03394703,-0.018747602,-0.019374179,-0.09651142,0.06159307,0.039111666,-0.06863509,-0.034874335,0.055130012,0.047241986,-0.034104917,0.03191586,-0.0091109695,-1.1128518e-08,-0.009821095,0.013032516,0.04407224,0.034264147,-0.0011271046,-0.027429419,0.039884273,0.015848838,0.117122486,0.045983594,0.038495336,-0.08011526,0.05015052,0.053981274,0.030450763,0.033442218,-0.037751205,0.10663437,-0.016398514,0.015909888,0.06766266,0.012128466,0.101583086,-0.0004697551,0.06687453,-0.046861585,0.013652215,0.046304077,0.044311445,0.025255643,-0.11139174,0.04849988,-0.03934305,-0.015573282,-0.05369028,-0.08543658,0.00880255,0.007986391,0.087612785,0.03653434,0.0118339155,-0.0633435,-0.025042756,-0.028648483,0.036325496,-0.006029714,-0.0041640718,-0.09726346,-0.07121388,0.043810997,-0.027713755,0.02206596,0.078743644,0.059298538,0.005260397,-0.0067373286,-0.005342229,0.07694785,-0.07625668,0.025900392,0.16441509,0.046939548,-0.06739272,0.020508742
details,0.011444608,0.12845775,-0.012390801,-0.030428126,0.017775906,-0.07550984,0.07884376,0.033841852,-0.04630549,0.0025352174,-0.021125233,-0.022320792,-0.014368085,0.0032870239,-0.05882634,0.015150858,0.08862011,-0.06003264,-0.15760905,-0.011769917,-0.017396113,0.0021549277,-0.033899557,0.032613393,0.007553698,0.06872131,-0.05541708,0.0729605,-0.03470159,-0.077149406,-0.010921083,0.0038020753,0.10063846,0.02514193,-0.124082126,0.03930169,-0.04496315,0.014230657,0.04491819,-0.021239107,0.05524213,-0.07185687,-0.015548556,-0.0129797915,0.059214324,0.038006153,0.0033514514,-0.03287855,0.041945953,0.021360666,-0.041024085,-0.0069254762,0.0028714463,-0.020143837,-0.008466923,-0.031936213,-0.029893408,0.029783938,0.012335791,-0.026038786,0.08697601,0.026314598,-0.04469787,0.02297237,0.031162072,-0.034531496,-0.05227443,-0.03501837,-0.031881545,0.0026152197,0.00036020912,0.0011544054,-0.054409523,0.025755197,0.031172149,-0.059984107,0.03651517,0.011237396,0.015559868,0.04178654,-0.006272127,0.0784912,-0.049278427,-0.0010165152,-0.010622178,-0.02757793,0.029072966,-0.028693255,-0.06674276,0.012024358,-0.003925504,-0.08535572,-0.0070041046,-0.024370663,-0.03486126,-0.047286563,0.0077461004,-0.045298357,-0.082551815,0.21664277,0.018646142,0.054320298,-0.040154688,0.0037283895,-0.0084319245,-0.06841652,-0.019974029,0.041238517,-0.02427869,-0.016533721,-0.044228125,-0.03281198,-0.06650184,-0.025423737,0.07293511,-0.06412898,0.10054892,0.049278244,0.081660844,0.028743403,0.08225195,0.031404175,-0.019828,0.0061190957,-0.07159578,-0.117094524,0.01437332,-3.081985e-33,0.037995085,-0.06901485,-0.03408815,0.13869683,0.06038403,0.046677485,0.006004073,-0.014461182,-0.024597974,0.15679905,0.06415059,-0.027661404,-0.05187882,0.013320819,0.09533518,0.025543021,-0.10415104,0.13312444,0.0059934678,0.024440784,0.017771669,0.08041778,-0.008755758,0.010970923,0.009389286,-0.0061461674,-0.0031741038,-0.07358611,-0.014218644,-0.037510037,-0.015234906,0.054944683,0.045644484,-0.045203727,0.012896882,0.006068051,0.009898606,-0.14228043,0.02185649,-0.0058612437,-0.00032367714,-0.04706323,-0.07928209,0.039261494,-0.005045522,0.020550407,0.02804038,-0.0077697034,-0.019438693,-0.075328074,-0.036425103,-0.0023151254,-0.09473872,-0.046448912,-0.046817705,0.024233138,0.02593351,-0.101866394,0.0027511255,0.020677188,0.048182793,0.06553992,-0.118596196,-0.015744032,-0.023828447,-0.06512043,0.047566235,-0.07355152,0.06391001,-0.049405456,-0.055385757,0.058854714,0.030383494,-0.007408575,0.014778949,-0.026274646,0.05112489,-0.013748034,0.0041102944,-0.040399123,0.018180782,-0.060642045,0.0049130707,-0.029761698,-0.070893645,0.014276337,0.0703606,-0.13832594,-0.0658541,-0.013271895,-0.07913599,-0.011850442,0.056479525,-0.053275086,-0.0004931439,3.811099e-34,-0.04042971,0.013704208,-0.04457543,0.014569395,0.027342238,-0.026795708,0.019068457,0.099950776,0.0030560554,0.06495165,-0.08270027,-0.0031261188,-0.0073022074,-0.063467875,0.010536322,-0.023485819,0.08135965,-0.007103721,-0.024868408,0.036732353,0.012925194,0.01893447,-0.0036218734,0.0066478606,-0.045241896,0.027073096,0.13963221,0.010177874,-0.012143186,-0.09762676,0.00801987,-0.04294713,-0.054912418,0.00017605747,0.0022596829,0.09369868,0.037529033,0.07012107,0.006093834,-0.019948855,0.13953504,-0.021454921,0.054195132,0.08232075,-0.014929339,-0.045851767,0.022318397,0.0486017,0.07842023,0.013853479,-0.0409407,-0.02468445,-0.036466032,0.038874157,-0.006947746,-0.020469623,-0.02168627,-0.0069377935,-0.01758139,-0.021453114,-0.015637163,0.04480984,-0.08840292,0.022521855,-0.033673905,0.030553337,-0.06711287,-0.07572582,-0.0172349,-0.050781894,0.00879587,-0.04203033,-0.079378806,0.02624301,0.06553916,0.018882222,-0.056419738,-0.017552393,0.046295792,0.0359629,-0.03444073,-0.0055293036,0.008702914,0.039690364,0.01741712,0.07007508,0.0053914646,-0.05960457,0.04275564,-0.07757725,-0.05478284,0.035495806,0.07314315,0.0175563,-0.015411031,-1.4025416e-08,-0.017112559,0.0054525365,-0.025706727,-0.013554809,0.012712245,0.08773451,0.04680474,0.0718746,-0.006730839,0.025358887,0.026419764,0.07043336,-0.03693811,0.021326916,0.07833499,0.0012114546,0.028420093,0.01386437,0.024761133,0.013067639,-0.044597257,0.008904608,0.024058571,-0.054183256,0.011859077,0.01695925,0.01076029,0.15714106,0.029376844,0.06783918,0.016632006,-0.016065216,0.0028829072,0.029338378,-0.07102854,-0.03398518,0.019144299,-0.024244158,0.03979841,-0.017581707,-0.06765886,0.016286802,0.024104308,0.06412226,-0.0034422996,0.054106064,-0.03453802,-0.06477352,0.02052263,-0.02043033,-0.06575126,0.067859024,0.05524165,0.07511369,0.055188518,0.027285676,-0.025097521,0.026708791,-0.026518667,-0.006135376,0.14509247,0.044359285,-0.016867496,0.009247871
brand,-0.09075166,0.028474918,-0.0028173258,-0.031857032,-0.03196192,-0.06552683,0.11953047,0.07409253,0.042947244,-0.02949575,0.059053138,-0.008383811,0.013856468,-0.063938566,-0.016807731,-0.05429116,0.010522524,-0.0070927204,0.001491321,-0.07540557,-0.046602458,-0.014218947,0.01368096,0.07763632,-0.064308256,0.07739612,0.0073935157,0.050189454,0.06361548,-0.13424432,-0.019850902,0.022839041,0.07507606,-0.050061923,0.01510959,0.022025919,0.0040746243,-0.048859786,-0.004941007,0.003863975,-0.012424488,-0.10299482,-0.053949352,0.0155070815,0.003905958,0.02252567,0.06742993,0.08983215,0.04484585,0.11628594,-0.031634647,-0.02914488,-0.03728735,-0.017901834,0.056993097,-0.0028077695,-0.08350489,-0.006809622,0.0035768177,-0.053028014,0.020943457,-0.04959402,-0.09108053,0.10383965,-0.006399107,0.021563288,-0.014388119,0.022677185,-0.04868041,-0.033056457,0.027534658,-0.014126668,0.052463382,0.08823465,-0.026680019,0.019564241,0.07538086,-0.07819182,0.02606383,0.017081179,-0.023519712,-0.057320323,-0.07004264,0.046497073,0.008790079,-0.030270467,0.066544995,0.03498882,0.033383068,-0.025758343,-0.037402213,0.015700495,-0.012097461,-0.02085699,-0.15513074,0.02009304,0.015786892,0.03038892,-0.044945933,0.21367708,-0.014861801,0.078098916,-0.031884223,-0.023527106,-0.020332297,-0.038374018,0.022315154,0.05446125,0.064131945,0.020336278,-0.08189896,-0.030829215,-0.07292451,-0.008049983,0.015791569,-0.11095392,-0.026368007,0.030867118,0.10674518,-0.10918523,-0.050826002,0.004223145,0.019197796,-0.096076384,-0.0677121,-0.0028397138,0.016022416,-4.9235026e-33,-0.041068275,0.0897798,0.014819918,0.032760948,-0.033145193,0.04442788,0.01664069,-0.0016388077,-0.0490343,0.0599053,-0.031067638,-0.03812653,-0.07480462,0.031120524,0.1321641,0.030652244,-0.045500446,-0.10061946,-0.004307744,-0.037924875,-0.04740581,0.14099212,0.036291525,0.10533147,-0.0037448483,-0.11647453,0.0062259943,0.026942138,0.0071952767,0.048274655,0.031437073,-0.016873438,-0.009802264,-0.08024527,-0.03175518,0.02779211,-0.07332867,-0.09916221,0.031942543,0.022476654,0.013934692,0.02099088,-0.027962534,0.090183064,-0.03305043,0.029185947,-0.027884241,0.0019427959,-0.0115097,-0.0021162732,-0.052075967,-0.0245149,-0.05039522,0.030199194,-0.016722908,-0.037734997,-0.03588607,0.016260004,-0.015237801,-0.011532446,0.013542899,0.09955916,0.0021737579,0.07884912,0.058510914,0.050216954,0.06416732,0.010731245,-0.037694138,-0.030961534,0.009020619,0.0015300472,0.010936538,0.020478262,-0.024936318,-0.024092665,0.0062709767,0.05895734,0.002191571,0.008319737,-0.051558852,0.042556033,0.022852456,0.051456816,-0.03440723,0.0014484284,0.0097603565,-0.02624318,-0.022649812,0.01597909,-0.044517517,0.02420346,0.04142461,0.051554,-0.060312793,3.895074e-33,0.031950418,-0.04877523,0.096385464,0.118043736,0.04956517,-0.017263714,-0.011807221,0.008539187,-0.0024957466,0.0066008274,0.011731676,0.0047499416,-0.020304425,0.027619645,0.0216382,0.0907453,0.091221645,-0.061905757,0.008398471,-0.08165852,-0.011892472,0.035851005,-0.026737042,-0.003529316,-0.030080311,0.02429801,0.039916378,0.044687986,-0.063047774,-0.061137617,0.022340154,0.003970289,0.009638116,0.09258806,-0.01407446,0.14533296,0.03300884,-0.007543931,-0.024133598,-0.01049232,0.037816312,0.034173876,0.016170917,0.12828714,0.0062180813,-0.09345274,-0.0077691777,-0.08847021,0.049524803,0.054523222,-0.07428879,-0.011962315,0.056229513,-0.020263994,-0.06351997,-0.0385249,-0.032047648,0.047979247,-0.04235679,0.0044197403,0.061605573,0.061508946,-0.049422096,0.058895994,-0.006319026,0.009898012,0.034741662,0.006103172,-0.020813916,-0.032336753,0.040695168,0.016144825,-0.045980968,0.017493492,-0.104097724,-0.0216789,-0.05796933,0.03694145,-0.027260335,0.016707847,0.012620555,-0.043605123,-0.06472486,0.13721679,-0.03127759,0.06894738,0.020942567,-0.0053976667,-0.013860215,0.018585065,0.07724222,0.015313122,-0.098496,0.027366357,-0.023535594,-1.1890834e-08,0.015323262,-0.03861601,0.0684728,0.0041173077,0.02836452,-0.0207072,-0.04802925,-0.07015608,-0.0037417423,0.061112963,0.039576642,0.008838328,-0.05259927,0.057147615,-0.017452538,-0.056705855,-0.041912984,0.101142384,-0.053076077,-0.0047013084,-2.0220612e-06,0.027802007,0.09208349,-0.04721498,-0.031037876,-0.019775214,0.037476636,-0.10273333,0.029307317,0.0130702,0.011810127,0.09571676,0.031362884,-0.020068312,-0.03750589,-0.04755191,0.034099795,0.006250378,0.007827793,0.02121135,0.00668372,0.021593895,-0.01745554,-0.021460278,-0.031493,-0.010885449,0.039444365,0.05838951,-0.002456679,0.025397072,-0.0015117684,0.020037275,0.003336501,0.001267898,-0.10484915,-0.10219979,-0.027997926,0.016218632,-0.048843008,-0.0042640236,0.053449262,-0.063919544,0.017172704,0.0042524873
Dell,-0.03749322,0.03128434,-0.005407111,0.05453612,0.0028868904,-0.04553445,0.05132914,0.004364022,0.08755499,0.017757954,0.043922376,0.035348132,0.025324564,0.050234903,-0.0071833087,-0.0023856896,-0.010384079,-0.08072358,0.06897811,-0.013778251,-0.064078555,-0.023035249,-0.07004325,0.025243092,0.00027730048,-0.028411482,0.052972596,0.04140144,-0.076721825,-0.085585095,-0.058721144,0.031946633,0.03448955,0.02455679,0.0051104,-0.020434799,0.040792562,-0.021664752,0.014728778,-0.13598122,-0.05103064,-0.003617279,0.042821463,0.037843153,0.1056441,-0.017429402,0.020019297,0.035600428,0.029012077,0.0024058837,0.023194483,0.009553613,-0.08085841,0.04749495,-0.04962544,0.020129988,0.035236195,0.0021334258,0.04200669,-0.032724496,0.036922883,-0.13214563,-0.04465503,0.038101345,0.019126594,0.0004571709,-0.027406916,0.022951756,-0.12017179,0.021301944,0.030612692,-0.025939582,-0.04723926,0.01728976,0.03748289,-0.006980257,0.068062894,-0.019332351,0.04023017,0.02719112,-0.036551405,0.009593438,-0.06033338,0.042074032,0.018183606,0.010713851,-0.04854754,0.04857879,-0.054381482,-0.16008793,-0.036036294,0.05313027,-0.05919498,-0.0032147167,-0.020423114,-0.038849656,0.062243335,-0.09622678,-0.029943727,0.18201515,0.05993706,0.023679405,0.058027655,-0.009905595,-0.006079695,-0.061687287,0.029821707,0.066716105,0.0068586115,-0.02796369,-0.06421054,0.028095465,-0.041006155,-0.016006561,0.019486126,-0.019348478,-0.04021776,0.08902309,0.09135377,0.015623704,-0.047044665,0.025767019,-0.035470817,-0.050470766,-0.05218619,-0.005355438,-0.04859583,-3.5526213e-33,0.052064296,0.031716324,-0.009204183,0.023732023,0.017682534,0.06728689,0.051914845,-0.037003357,-0.046645343,0.03757643,-0.022674663,-0.040405925,-0.07460103,0.03504428,0.12604997,-0.03146225,-0.005441256,0.016358078,-0.064638615,-0.07219512,0.03881465,0.04290348,0.022384029,0.0073866732,0.08265334,-0.048120014,-0.06068021,0.046056926,0.027947742,0.010165494,0.03414546,-0.0012045337,-0.022446202,-0.14224844,0.014883707,-0.01862363,-0.046505053,-0.04613661,0.056464978,0.006608326,-0.049038462,0.06290804,0.021083543,-0.054490402,0.0028384503,0.0052398588,0.003943799,0.07645917,0.010359981,0.07006928,-0.09697431,-0.0035008236,0.0022385048,-0.038265437,-0.068025954,-0.014600697,0.06726708,-0.023108793,0.06896962,0.01832154,0.059516355,0.026633384,-0.01399666,-0.007242454,0.02160261,0.06362056,0.088797346,0.04698966,-0.05128874,0.018298388,-0.043270584,-0.08992226,0.012241378,-0.0028120764,0.009135464,0.033431362,-0.11899558,-0.018649573,-0.07272484,-0.04359165,-0.09637578,-0.060044218,-0.010470036,0.06850326,0.0136519205,0.045383293,-0.069989815,-0.04178828,0.00072322,0.0069209062,-0.078427345,-0.009555425,0.017926052,0.029926993,-0.053128053,2.2047772e-33,-0.085554115,-0.073260106,0.051895462,0.059957206,0.03931618,-0.04246245,0.003284611,-0.004520114,0.010474878,0.040705126,0.010730832,0.020201106,0.020968277,0.027662484,0.032102283,0.06958357,0.007548643,-0.04926723,0.058376707,0.01756143,-0.07062947,-0.049356095,-0.005465174,-0.067395516,-0.0003806327,0.03720607,0.028576883,-0.010814474,-9.5120246e-05,0.0061854594,-0.038109563,-0.059242554,0.002375248,0.13287082,0.060748924,0.023134004,0.058479156,-0.01943422,0.042338364,0.0048589744,0.07892496,0.041108917,0.018953586,0.114127114,0.052535266,-0.02897442,-0.039646305,-0.0787365,-0.0022894081,-0.0031182955,-0.06883797,-0.034311503,0.05511358,0.00202991,0.0036789256,-0.10040954,-0.023394063,0.102349035,0.06360712,-0.08286007,0.0025829687,0.03466465,-0.021993661,0.031398945,-0.0376931,0.032982346,0.047191154,0.051933736,-0.0030258696,-0.058612075,0.018979305,0.030886387,0.00060771994,-0.08810842,-0.13168792,0.008116652,-0.013130848,0.01203605,-0.009323596,0.0043430976,0.08759255,-0.048313584,0.004059729,0.05311325,-0.066818826,-0.025055213,0.07355571,0.0059633222,-0.039798625,-0.04665025,0.0011160081,0.00042540615,0.0031828405,-0.05495705,-0.085872635,-1.0940801e-08,-0.010382041,-0.011603014,-0.0049179127,-0.010832847,0.0060202,-0.12289224,0.07124165,-0.019288586,0.12138581,0.063613035,0.030791057,-0.13070467,0.04299315,-0.07406763,0.02698192,0.02173169,-0.041485406,0.08141435,0.02875821,-0.008610383,0.05346541,0.077747114,0.11663166,0.002653516,0.057165924,-0.046953835,0.016645461,-0.003401429,0.043716807,0.0095869955,-0.028157828,0.01618822,-0.013061019,-0.028451469,-0.022506125,-0.039773665,0.0025568379,-0.015279168,0.14206867,0.010556404,0.009531351,-0.016703341,-0.038210563,-0.03581944,0.015924476,-0.070781216,-0.00085409934,-0.080975465,-0.0052685426,0.09715806,-0.0048679593,0.029800268,0.030024761,0.01489058,0.0050550774,-0.020942234,-0.0036956395,0.08271427,-0.06449684,0.072590314,0.117689535,-0.050113253,0.0034435582,0.0049135503
RAM,0.03496078,0.073903404,-0.07297317,0.017425913,-0.040755857,-0.013755171,0.063577645,0.01601972,0.060662404,-0.0012931798,0.01654238,0.060407363,-0.024669176,-0.034765474,-0.004654331,0.049387842,0.019618388,-0.027077766,-0.026217783,-0.06695438,0.015345936,-0.028474718,-0.062343452,0.0071750516,-0.06279237,0.05483267,-0.008285956,-0.005908967,0.055137012,-0.12395703,0.022066936,0.009097773,0.0045299483,0.023011025,0.0026997968,0.016644044,-0.00067185116,-0.044030387,-0.0018594393,-0.027561778,0.0117530115,0.0021563342,0.056035925,0.04744847,0.07979212,0.051429547,-0.009825352,0.057716906,0.06290604,-0.028296964,0.014250047,0.027328331,-0.046841007,0.07859983,-0.052964173,0.024007741,-0.0021019264,0.025269384,-0.024187518,0.035956305,0.00046620838,-4.7566897e-05,-0.009452274,0.00978153,0.019789113,-0.05535083,0.025813337,0.0049147476,0.015594815,0.069284245,-0.041094374,-0.0053427303,-0.022096861,0.0061845807,-0.039076455,-0.043864198,0.06117915,-0.04165585,0.041954584,-0.109586276,-0.053400483,-0.06372994,-0.037506282,-0.040298894,0.056534547,-0.001561033,0.028509974,0.046518374,-0.07566578,-0.037438285,-0.049252797,-0.00583821,0.025655929,0.028020084,-0.025111059,0.052825376,0.028750747,-0.08872958,-0.059815466,0.18921725,0.0777014,0.10253346,0.08574408,0.031955898,-0.04093732,-0.02617319,-0.018848294,0.088385604,-0.01559304,0.007563955,-0.039745938,0.038214598,0.00442115,0.022034377,0.047024723,-0.08509665,-0.0880307,0.01645863,-0.016190171,0.026350262,-0.012249198,-0.043728728,-0.01787162,-0.016565284,-0.09502681,-0.11030949,-0.08919556,-2.4024722e-33,0.015422556,-0.058015697,-0.05180968,0.0032219936,-0.0170441,0.0051724846,-0.02782976,-0.04343868,-0.05280525,0.096849926,-0.014087978,-0.08051043,-0.001145232,0.053644527,0.14558803,-0.026435396,-0.021143718,0.0348861,0.032888435,-0.054959506,-0.020421905,0.07322922,-0.032190207,-0.011570087,0.032217987,-0.056977164,0.00533411,-0.026236989,0.03610677,0.025938917,-0.030265782,-0.063085236,-0.018295374,-0.05578304,0.07700399,-0.04420544,0.003779411,-0.1032063,0.01578747,-0.041656055,0.027387155,0.056515798,-0.042950664,-0.10149554,-0.064122185,-0.0027871404,0.07826442,0.03212246,-0.008617855,0.029803513,-0.048609402,-0.037075233,-0.052673873,0.0461191,0.0001987578,-0.0011122968,0.037866607,0.019014193,0.12021372,0.097971395,0.02807528,0.021501454,-0.025950061,0.018857023,0.012938165,0.026699297,0.13958666,0.0660972,-0.03925289,-0.028456168,-0.06878338,-0.09698675,0.054460593,0.05316194,-0.052697618,0.013874804,0.0011851774,-0.029000998,-0.13542101,0.033181686,0.019579718,-0.027823081,-0.008902777,0.06247562,-0.017908951,0.07181618,0.009459339,-0.032344386,-0.0023298457,0.017403064,-0.022267113,-0.003839826,0.05979152,-0.029715117,-0.061076365,2.7338092e-33,-0.048486006,-0.047201086,-0.027846344,0.1263577,0.0066703246,-0.062032286,0.0008002482,0.011561105,-0.052660417,-0.060144667,-0.024585774,0.014398127,0.06691205,0.012591485,0.04898861,0.03559157,0.00015830247,0.00075748016,0.051137935,0.028865105,0.005418651,0.068463475,0.073987596,-0.09807864,-0.035270814,0.04881267,-0.045662064,0.0692013,-0.083547145,0.032132052,0.066686854,-0.06033255,-0.0028666407,0.0813294,-0.06116937,-0.049957365,0.12942351,-0.03989732,0.012028087,0.019109622,0.10933654,0.071155965,0.031615697,0.051966134,-0.014819876,0.018721957,-0.06715462,-0.043999117,0.07864344,-0.0047497745,-0.013799297,0.0040008393,0.059819963,-0.05113054,0.03082647,-0.098349355,0.007978925,0.03611279,0.13406804,-0.054347675,0.10056897,-0.047947027,-0.053630877,-0.073215626,-0.045735158,-0.030067967,0.0314615,-0.004135563,-0.04510798,0.027804345,0.057165593,0.023349991,0.023460567,0.042722803,-0.082660936,0.009172059,-0.030082375,0.006786452,0.01477437,-0.01502512,-0.063193694,0.046858564,-0.0060903225,-0.030596524,0.005922362,-0.008546001,-0.039718248,0.0147012435,-0.0727647,-0.09393477,-0.0061721406,0.01608138,-0.0050858054,0.03822358,-0.084283434,-9.919613e-09,0.00859177,-0.041304223,0.03907319,-0.014607714,0.051984385,-0.062190108,-0.030879933,0.054967426,0.11550447,0.023494627,0.15630555,-0.07250734,-0.040381584,0.015540139,0.06141179,-0.008816085,-0.05309004,-0.0038473408,0.01353429,-0.08275006,0.044371232,0.06418634,0.07426381,0.017976351,0.1052187,-0.03990669,0.05785398,0.05091125,0.032135386,-0.0023567516,-0.022452284,0.043767557,0.023694586,-0.10091075,0.04238678,0.00716139,0.015333597,0.05707054,0.06573171,0.022057824,0.015438607,-0.037441082,0.0061898986,-0.0067362846,0.017746687,-0.03513638,-0.0739322,-0.01544457,-0.053104475,-0.02308267,-0.010633845,0.03990077,0.028814249,0.03537115,0.06894162,-0.066140994,-0.033619944,0.045204554,-0.047676906,0.03325445,0.032794304,-0.0061765467,-0.0047332686,-0.0029203785
16GB,0.021753438,0.04107474,-0.044500586,-0.0014752155,0.0043281177,-0.044740383,0.03694525,0.040314842,0.062675014,0.022278653,-0.009115712,-0.008889033,-0.010954065,0.060618408,-0.08883651,0.110217944,0.0039911154,-0.039797954,-0.09274112,-0.031215563,-0.04115818,-0.088020936,-0.06976962,0.0061880215,-0.028515272,0.020610642,0.005447808,-0.0045864037,-0.022104582,-0.090383634,0.049860064,0.05239405,0.087992005,-0.017747266,0.08615226,-0.07825094,0.0036283867,-0.030487739,9.083442e-05,-0.05328565,0.022600142,0.056695018,-0.013290507,0.055592142,0.044153318,0.07468254,0.048451994,0.06597185,0.06657994,0.041085288,0.011866206,0.08533698,-0.05498755,0.09181054,-0.03890915,-0.052404407,-0.0397639,0.019743446,0.014892596,0.031521417,-0.027047966,-0.09160732,-0.028214328,0.040733106,-0.020197239,-0.011534316,0.0064296173,0.003784237,-0.06775394,0.02465218,-0.010216449,0.07542245,-0.06456808,0.0047728387,-0.007873851,0.011699349,0.10309724,0.096425496,0.01624053,-0.016164824,-0.034898594,-0.015947053,-0.009997283,-0.06925274,0.03304,0.021660812,-0.0033912768,0.009006032,-0.10754713,-0.034295686,0.014329716,-0.0071100737,0.0034886214,0.08847009,-0.05753919,-0.020818023,0.016643291,-0.12167026,-0.019980183,0.13192883,0.042979136,0.10498859,0.053593144,-0.012186392,-0.020925682,-0.02133828,-0.0007951189,0.10829649,-0.024832489,0.058106862,0.022272136,-0.0030897702,-0.027767774,0.0044730366,0.096745804,0.0025133078,-0.055561114,0.07387788,0.03290593,0.025451139,0.08364366,-0.05105282,-0.008709119,-0.07744823,-0.12185671,-0.095330946,0.002620088,-7.20164e-34,0.05772172,0.03698606,-0.050216194,-0.0011802743,0.03144625,-0.012802007,0.047455024,0.019951466,-0.09437116,0.035008494,-0.06774075,0.003780697,-0.046292953,0.00599371,0.13807204,0.03362295,0.0014370593,0.034186613,0.03819702,-0.07832259,-0.01269978,0.043648113,0.023263454,0.050700054,0.010600657,-0.053194936,-0.0074406667,-0.06563695,0.10437168,0.017283242,-0.089234255,-0.056630515,0.018571526,-0.051063884,0.06750021,-0.009265287,0.008405801,-0.13146405,0.015819639,-0.05029416,0.06933503,0.029635003,-0.0033266947,-0.06529725,-0.046433493,0.0009680302,-0.023458263,-0.0431655,0.008371476,0.10068922,-0.015429259,0.0011117071,-0.06481065,-0.010488805,-0.055286378,-0.00063334504,0.010005542,-0.012217151,0.08852709,0.034546252,-0.013857201,-0.03324132,0.035417143,-0.015920496,-0.032963544,-0.027882237,0.0803472,0.00035581994,-0.01020895,-0.04634555,-0.07300111,-0.089313544,0.09918051,-0.009057436,-0.020155266,-0.05250239,0.0012697979,-0.02908346,-0.03727189,0.092637695,-0.07785638,-0.039214563,-0.028625982,0.058695786,-0.0328315,0.05643557,0.08234417,0.010971011,0.0034029551,0.08316851,-0.0490734,0.0034427606,0.0133548705,-0.017726896,-0.0331583,1.41477725e-33,-0.06307032,-0.005413972,-0.01007411,0.041883305,-0.017700866,-0.061594497,0.012225431,0.09994247,-0.02930341,-0.018872915,-0.027854092,-0.024493476,0.101513274,0.08202555,-0.054276627,0.019614097,0.05583828,0.0023751368,0.050326437,-0.010559213,-0.021771822,0.026834767,0.08693395,-0.044815928,-0.021612175,-0.0026656657,0.026551481,0.016190875,-0.0616571,0.039364684,0.07064105,-0.10464081,-0.0033896025,0.046517905,-0.017668093,-0.025168097,0.06925212,0.03198588,0.043611452,0.015262884,0.0507362,-0.0009683705,0.018710334,0.03230604,-0.02340942,0.007100916,-0.009080114,-0.01712592,0.07161357,-0.00938242,0.016880639,0.074536145,0.022819135,-0.017985651,0.012151673,-0.06877601,0.010472827,0.06746206,0.037519265,-0.09170862,0.06235484,0.008135047,-0.057904612,-0.018669453,-0.038213246,0.0020217826,0.038702592,-0.069076195,-0.022159657,0.0570031,-0.025632216,-0.012094934,-0.0016458655,0.052476406,-0.0216797,-0.0071457783,0.015639773,0.012082978,0.07755155,0.015334193,-0.074765645,0.10370572,0.05050518,-0.05869524,0.008029027,-0.051216047,0.024373712,0.04342825,-0.052312095,-0.034380034,-0.054285984,0.020995704,-0.03807145,-0.0011775699,-0.03843221,-1.2699154e-08,0.019562338,0.0019667319,0.07084452,-0.010491399,-0.0020998365,-0.072668575,0.002797433,0.06746286,0.053900927,0.05266896,0.07333749,-0.050471425,-0.117156,-0.011796485,-0.011119338,-0.0470396,-0.089877136,-0.009669505,0.019063637,0.02937464,0.06836035,0.09245067,0.019721165,-0.018270724,0.093190745,0.022247206,0.078762814,0.1141431,-0.04341022,-0.06423094,0.09016147,0.025899384,-0.012386605,-0.076526925,-0.019891033,-0.012802479,-0.029110301,0.07214188,0.045807373,-0.00788975,0.011886061,-0.01647132,0.04180597,-0.0986476,-0.029674117,-0.038783066,-0.118180625,-0.0006119919,-0.064962044,0.074706346,-0.01125612,0.02392708,0.043106567,0.004722039,0.073300675,-0.027707411,-0.0015441512,0.03379165,-0.07836834,0.034561355,0.05870366,-0.035906937,-0.08048032,-0.017518912
price,-0.08021142,0.026802368,-0.06569749,0.04516019,-0.0036841284,-0.0044367346,0.089255564,0.09150298,0.10589622,0.041387375,-0.019025661,-0.08377295,-0.008694846,-0.020000236,-0.029814221,0.02117774,-0.030912617,0.012231918,-0.05453187,-0.0225254,-0.12179629,0.0018948845,-0.057427444,0.023353042,-0.008975452,-0.0016676914,0.05272881,-0.0201281,0.029376427,-0.09316075,-0.013922141,-0.023328424,0.04676392,0.015496925,0.036756128,-0.05150975,0.020105861,0.019540042,-0.045124087,0.028593661,-0.0068562985,-0.071746826,-0.102626,-0.027044132,0.026858984,0.033547007,0.017649496,0.07457559,0.072446935,0.09811659,-0.012258827,-0.013550361,-0.005005546,0.007580022,0.01257304,0.028876116,-0.052989304,-0.008440251,0.053310864,-0.025893982,0.029124036,-0.0257978,-0.054672655,0.08390324,0.110753424,0.010033409,0.014746733,-0.070921496,0.027880328,-0.042083006,-0.017555658,0.055889208,-0.017381769,-0.08700646,-0.0055882176,0.028665427,0.071814865,-0.062271733,-0.02862254,0.020246372,0.022996968,-0.07714334,-0.019162135,0.0038882364,0.07282633,-0.006135036,0.09403671,0.10391514,0.010733443,0.02463689,0.0045509837,-0.019083606,-0.032455273,0.008660932,-0.06633995,0.054237347,0.05790554,-0.032614954,-0.01598979,0.19262266,0.00862976,0.019777795,0.009576056,0.011611011,-0.034919247,0.02003851,-0.05241664,0.048863024,-0.010848671,0.016941052,-0.04944512,-0.0664109,-0.091059126,-0.051419213,-0.019695774,-0.07341383,0.033512063,0.01812351,0.06957717,-0.06517231,0.013403083,-0.09651506,0.02005712,-0.016380863,-0.14754623,-0.08244207,-0.04217339,-3.8756798e-33,-0.018289283,0.005713309,-0.057662815,-0.05732968,-0.042532448,0.011298084,-0.0003109913,0.023680348,-0.03640466,0.08506886,-0.06121562,-0.0245277,0.010533766,0.0041227005,0.07613014,-0.078043826,0.03383833,-0.049082536,0.004417605,-0.036940552,-0.079122365,0.033374395,-0.0074830963,0.051673967,-0.020119535,0.03666539,0.0037487827,-0.03571518,0.084739394,0.025826287,-0.05616893,-0.040876877,0.043685324,-0.0042814375,-0.04981676,-0.025875885,-0.010961013,-0.07160661,0.037207786,-0.019477237,-0.0027339887,0.064197205,-0.046076216,-0.015318295,0.013988711,0.0132871615,0.046203755,0.022722548,0.0011672311,-0.023214173,-0.056231022,0.019579986,-0.13751172,-0.01511994,-0.07710842,-0.016539022,-0.0004682107,0.0086878855,0.05026121,-0.019770889,0.12519117,0.089005016,-0.0043848674,0.003551698,-0.04289422,0.013476857,-0.0038942548,-0.030439824,0.009271674,-0.016198274,-0.06157201,0.006374552,0.1321105,-0.07908943,-0.009565352,-0.027029457,0.046024106,0.028878767,0.025506923,0.045927808,-0.07890094,0.038265266,-0.023246411,0.06745018,0.009893343,0.03285836,-0.07989168,-0.0049981666,0.029486623,0.020255841,-0.0012099189,0.015704522,-0.007760621,-0.025581881,0.051128466,1.8341698e-33,-0.027353711,0.05163668,0.015320776,0.062047977,0.029713972,0.03683468,-0.004403466,0.0526916,0.017631445,0.051318545,-0.083804406,0.0016811802,0.12891571,0.07068534,-0.007525222,0.019014928,0.051503554,0.0089674415,0.052471012,-0.06809763,-0.043115277,0.048969034,0.0004956358,-0.025994688,-0.03493018,0.038231242,0.06367137,0.025600096,-0.055510055,-0.0062239887,0.043927792,-0.03925789,0.03843834,0.07450594,-0.06507083,0.08038845,0.07262794,0.052879445,-0.040083565,0.033889964,0.015570441,0.0009765946,0.058063634,0.07070423,0.051350042,-0.055095248,0.015526369,0.0054957396,0.05595645,-0.0012486512,-0.030134967,0.007373555,0.05023778,-0.02560526,-0.13292828,-0.05638139,-0.052082203,0.13244632,-0.04229995,-0.053423442,0.090382636,0.112588294,-0.027720142,0.050779648,0.0062145875,0.084404804,0.021092521,-0.02437502,-0.0055763954,-0.02284531,0.021919543,-0.010778547,0.03463883,0.008666067,-0.01734859,-0.06359847,-0.051844522,0.006820873,0.09126555,0.027944358,-0.051338598,0.020942947,-0.020568272,-0.0136579415,-0.03761144,-0.09609016,0.02345558,0.107509725,-0.012063453,-0.017480535,-0.06923232,0.041993782,0.037266795,-0.07759632,-0.03611334,-1.2749073e-08,-0.004090646,-0.0013451161,0.0645697,0.01843395,0.081402674,0.0053862613,0.013391912,0.019992376,0.019769894,0.063489415,0.007147842,-0.048048496,-0.03932439,0.00074566365,-0.0374727,-0.006610351,-0.071117096,0.06912377,0.005754806,-0.0036215754,0.086926475,0.03922994,0.022568367,0.008572614,-0.014311757,0.03991079,0.014786102,0.09148103,-0.012606243,0.011440218,-0.06847428,0.06003615,0.021929273,-0.051560193,0.030871946,-0.09638823,-0.104601495,0.022891328,-0.0060122097,-0.00084827247,0.029555509,-0.077679165,-0.013751003,-0.07325291,-0.0091568595,0.0664972,-0.092454106,-0.0028742438,-0.019679345,-0.017611569,-0.0087868795,0.053121977,-0.017036773,0.0018856064,-0.010965757,0.006686407,0.011315054,0.038253244,-0.061808962,0.025575748,0.091030374,-0.14331548,-0.12932436,-0.0036266965
1000 USD,-0.020269195,0.055928893,-0.06582052,0.031202426,-0.031643137,-0.053342767,0.08574473,0.07786694,-0.02876732,0.018876811,-0.03597203,-0.10948378,0.008006087,0.0066532316,-0.08061452,-0.0062607536,0.04613636,-0.033078652,0.0019791718,0.000649368,0.039375905,-0.014999741,0.014025951,-0.042187214,-0.057736777,0.023377266,0.08704026,0.011768071,0.0034691542,-0.012232175,-0.008984432,0.019471955,-0.0058375667,-0.034533747,0.018573198,-0.034572124,0.047044873,-0.030463716,-0.06216602,-0.04476178,-0.012906947,-0.011328389,0.008558151,-0.06398457,0.023968816,0.0428947,0.028912634,0.119118124,0.04375214,0.099677086,0.002379813,-0.034194108,-0.032423064,0.033745557,0.0837223,-0.013152442,-0.012607361,0.017758869,0.011077181,-0.010727923,-0.010379003,-0.013872877,-0.097940356,0.026798109,0.10640472,0.019624634,-0.015859699,-0.057759378,0.014483272,0.0049993168,0.0013868541,0.0101554375,-0.042852778,-0.06264129,-0.03398188,0.037943337,0.09838204,0.0005926821,0.02018107,0.0027918278,0.008318409,-0.012939832,-0.09728042,-0.055558115,0.025182925,0.06361264,0.0170145,0.032930553,-0.012988241,-0.008932323,0.006745911,-0.07427756,0.034312412,0.035771705,-0.12123917,0.05348245,0.030607596,0.0057420726,-0.02520943,0.17583907,0.03828877,0.009077978,0.054125544,0.04041342,-0.012559825,0.037441257,0.039339155,0.0791352,0.00978922,0.010964327,-0.0457634,-0.023747861,-0.08591048,-0.01657795,-0.049860742,-0.035736334,0.034348894,-0.013343998,0.08084995,-0.0030245415,0.035037465,-0.06761616,0.022070685,-0.0062114955,-0.119741604,-0.116829835,-0.058904044,-2.1620884e-33,0.036766797,0.108712174,-0.0006224666,-0.10464562,-0.032310847,0.005812282,0.05368396,0.05684958,0.004310605,0.0018248647,-0.05075834,0.058709875,-0.035997342,0.110194854,-0.0062794075,-0.03608725,0.049545996,-0.00023668158,0.07153722,0.04074453,-0.050013456,-0.004882316,0.054447163,0.12958497,-0.010753638,0.07221579,-0.033272568,-0.092085615,0.06881056,0.021364426,-0.041088115,0.012629546,0.047363,-0.07516878,0.0076735104,0.018992119,0.055740897,-0.07779227,0.046089925,0.027304627,-0.04247589,0.05099874,-0.008392148,0.022362852,0.006695863,0.0772279,0.014113936,0.068323165,0.06236791,-0.014330881,-0.047777988,-0.002620643,-0.12549266,-0.06021587,-0.028682724,-0.07710308,0.039759077,-0.057578124,0.015713053,-0.04287142,-0.015316781,0.007410903,0.0017215635,0.05026246,-0.12008638,0.062544316,0.017598657,0.024996059,0.004300385,-0.05700151,-0.08020853,0.0013340991,0.09273801,-0.014395084,-0.028778126,0.00724341,0.112964,-0.031863134,-0.019545477,0.092248924,-0.068688214,0.049778,0.009523335,0.10895423,0.055787504,0.055004142,-0.0062020803,0.026811887,0.05673223,-0.020179626,-0.041042954,-0.007174437,0.0017469274,-0.050024778,-0.018021746,1.2868502e-33,-0.05018546,0.027138215,0.0011554713,0.09038401,-0.026323479,0.03086151,-0.013027237,0.13391195,0.0076199654,0.059167013,-0.070848316,0.0015598063,0.15513498,0.046471376,-0.007922856,-0.011933928,0.045759752,0.008754843,-0.0006833192,-0.04927103,0.035554715,0.033206668,0.0456916,-0.0031431736,-0.018244635,0.010825732,0.03380128,-0.015352387,-0.053305283,-0.017972065,0.02285881,-0.03237754,-0.028407672,0.07093946,-0.06543081,0.12719388,0.046557333,-0.004707026,-0.02122315,0.051011045,0.09679104,0.012081212,0.0017367986,0.10361687,0.0006956929,-0.015793445,-0.029639767,0.0071129864,0.06102618,-0.024511682,0.020053277,-0.011576157,0.016284235,-0.007957463,-0.0857282,0.013606528,0.024107259,0.023130732,-0.0066655753,-0.07994176,-0.0102816215,0.084010825,-0.025093257,0.01809013,-0.04201564,0.023269013,-0.018950462,-0.022222733,-0.045355335,-0.017681506,0.008431009,0.012312982,0.0776678,-0.018335856,-0.057136934,0.040681794,-0.08877253,-0.037437595,0.11779023,0.05445457,-0.049686596,-0.04710937,0.040886454,4.906945e-05,0.050716255,-0.0063806255,-0.04169871,-0.0077797594,0.01789247,-0.06099097,-0.0887737,-0.0077922596,0.009565417,-0.07592271,-0.027683565,-1.4213181e-08,-0.034197953,0.01548324,0.035158403,-0.040904723,-0.008793811,0.02624378,0.015179429,-0.0068397336,-0.043706488,0.034154803,0.06252746,-0.0960149,-0.07765615,-0.02384388,-0.08345185,-0.005303878,-0.045639023,0.043446552,-0.0016991419,0.019558752,0.003057769,0.020359,0.042960893,0.005287911,-0.026621033,-0.045438364,-0.0009858736,0.14578728,-0.0649895,-0.0102632735,-0.050061874,-0.0128614735,-0.06067354,-0.03564915,-0.0010843292,-0.047207624,-0.07814057,0.07700316,0.053637605,-0.030323245,0.0038019698,-0.0426906,-0.047348622,-0.035475384,-0.01314895,0.007899325,-0.13363941,0.005969681,0.00244305,-0.050085615,0.005053457,0.07222837,-0.07514241,-0.030280435,-0.00635543,-0.018821875,0.030131081,0.025913153,-0.047629457,0.052285776,-0.011475422,-0.13195822,-0.045723263,-0.061461315
specifications,-0.010939269,0.041173443,-0.05430477,0.016247015,-0.07425511,-0.022981225,-0.002999173,0.10740136,-0.07076891,0.025362343,-0.024629908,-0.09323048,-0.0063602314,-0.056112148,-0.07915614,-0.025866874,0.10333878,-0.082208075,-0.1014252,-0.010700745,0.033058174,-0.0098277535,-0.0051318556,-0.0048126746,-0.067683116,0.03941116,0.026807131,0.074292354,0.0046334625,-0.083263,0.048765235,-0.025613455,0.04957009,-0.0060642133,-0.07201875,-0.022413246,0.037635658,-0.07928628,0.03274766,-0.002994551,-0.016614158,-0.07204294,0.015902396,0.054958317,0.064862795,0.019983271,-0.015686344,-0.014166612,-0.076187804,-0.001409904,-0.033710398,0.028284982,0.0018589104,0.03922044,0.0032008179,0.018559836,-0.061032746,-0.0002676086,0.008140726,-0.011406987,0.083084635,-0.04094222,-0.029129026,0.014282027,0.13950628,-0.054663394,-0.06422309,-0.07640342,-0.024022846,0.029291892,-0.09511243,-0.054879464,-0.04044467,0.0021160152,-0.0012968649,-0.07124679,0.0065852436,-0.0033127237,-0.012746079,-0.06905175,-0.03835998,-0.020944305,-0.049358644,-0.01141454,0.059037905,0.02679577,0.040561732,0.0752023,-0.019957956,-0.0008025452,0.019925911,-0.047694772,-0.024929544,0.025165047,-0.042949513,0.07431586,-0.011935412,-0.13214217,0.03692343,0.22603934,0.020601636,0.025216676,0.057905216,-0.025628716,-0.05496814,-0.006234708,0.00831085,0.08445966,-0.019969516,0.014655183,-0.0069518085,-0.043011513,-0.08932873,-0.046147823,0.087675035,-0.08622438,-0.03242983,0.036397576,0.10931064,-0.005354196,0.04844141,-0.050326563,0.051229883,-0.057641312,-0.07065426,-0.04381657,-0.049238387,-3.7942114e-33,-0.014285874,0.02506816,-0.05776072,0.09417102,-0.027536202,0.008134882,-0.009152099,-0.0014566185,0.029418074,0.09605907,0.018706439,0.01763252,-0.06499282,0.044100493,0.06416087,-0.031377096,0.017963992,0.098235324,-0.013447018,-0.011486597,-0.0028476994,0.012969395,-0.0094466545,0.029104684,0.07803717,0.0586348,0.0078077293,-0.01357313,-0.0028467313,-0.008149342,0.04486687,-0.014302324,0.035660226,-0.06962335,0.03645181,0.06802152,-0.056418866,-0.061114937,0.037091475,-0.024897583,0.0035364644,0.023407886,0.0041368445,-0.00858741,-0.033866838,0.055743027,0.04551503,0.0183534,0.010425128,0.07865529,-0.03923657,0.007496786,-0.055173475,0.014490468,0.062646605,0.025265202,-0.007696029,0.027311727,-0.003255216,0.11703385,0.04969507,0.04116451,-0.041828267,-0.07208993,-0.032520805,0.058104202,-0.0350111,-0.02254642,-0.025443643,-0.07430071,-0.07202917,-0.06413446,0.066773124,-0.007465733,-0.022475438,-0.040512413,0.042107493,-0.03834379,-0.026092792,0.034088958,-0.14522745,0.07195328,-0.0003876432,0.011310547,-0.043794945,-0.018919453,0.008103544,0.07314503,-0.038893223,0.02525329,0.020986736,0.022389721,-0.019144436,0.0043255184,0.014609357,1.8616638e-33,0.02252394,0.047554243,-0.040852536,0.07523055,-0.0057066814,0.0017658998,0.037552282,0.06584053,-0.015804986,-0.013746444,-0.0007931402,-0.02198674,0.076102346,0.03800523,-0.052481238,0.024615023,0.031158391,-0.09255287,0.041900445,0.005019473,0.048095677,0.024014305,0.007775871,-0.008111539,-0.051665332,-0.009514534,-0.0277136,-0.07512075,-0.059797656,-0.05624643,0.021068405,-0.12082368,-0.026876125,0.17555247,-0.045412816,-0.10809469,0.09518741,0.057712518,0.0073681567,-0.02674778,0.100339524,0.041503374,-0.007617239,0.0945363,-0.035965227,0.010738937,0.059313536,-0.059167255,0.08108649,-0.06260699,0.021173375,-0.032311834,0.0739206,0.0029036258,0.0017729481,-0.07279269,0.022431282,0.0012787295,0.037239667,-0.041906413,0.113071,0.030431537,-0.058053773,0.08247836,-0.01139709,-0.014512055,-0.051940717,-0.036670078,0.024790162,0.023579963,-0.018876268,-0.07096212,0.031843074,-0.034300752,-0.00027662233,-0.08881811,0.010671944,-0.03203735,0.0337843,0.015426306,-0.068716556,0.05589011,0.00039573744,0.03104572,0.014534623,-0.037324395,0.0590277,0.018560007,-0.018918827,-0.020226786,-3.3691096e-05,0.040153783,-0.04748181,0.008744314,-0.068111375,-1.3118831e-08,-0.05901123,-0.018626643,-0.034532413,-0.043665305,0.0031469893,-0.027886018,0.039700028,-0.096316315,0.03208038,0.05642726,0.08102828,-0.014278241,0.005788923,0.061405562,0.045837894,-0.003388824,-0.028561536,0.09714327,-0.01998061,0.01855808,0.07140757,-0.017674759,0.024297787,-0.026942628,0.042694066,0.0048791682,0.0076703886,0.04630476,-0.008115742,0.0878087,-0.012304768,0.041530203,0.041961767,-0.113413654,-0.018788198,0.011132216,-0.020303393,0.04492405,0.084078304,0.029231628,0.0010119427,-0.049566984,-0.033401288,-0.0038834421,0.08380633,0.017183432,-0.13440661,-0.030414559,-0.06788138,0.055425067,0.028519144,0.043507528,0.016031226,0.031384192,-0.007039826,0.06163219,0.029127901,0.0040368093,-0.04872284,-0.027980717,0.07771694,0.07243673,-0.053680155,0.008118476
processor,-0.00601775,0.039786585,-0.01704148,0.017689096,-0.024801098,-0.08739169,0.03443458,0.020409662,-0.009134984,-0.0051422953,0.057376623,0.015088502,-0.055203754,-0.07190219,-0.015796902,-0.014473306,0.073340595,-0.04003804,-0.0685116,-0.088893235,-0.015942125,-0.04073123,-0.07584032,-0.012327646,0.042661026,0.04773582,-0.025120191,0.02096378,0.016417619,-0.09279188,-0.0045482987,-0.05694611,0.050433032,0.049742673,0.007183042,0.0069152284,0.049120646,-0.08318698,0.025392625,-0.045099597,-0.02428459,-0.037390478,0.050468985,0.032163054,0.061221253,0.01139441,0.01765825,-0.041243766,-0.008142802,0.023495862,-0.093314245,-0.060269754,-0.023095556,-0.0057678362,-0.0814468,0.02189916,0.032042623,0.008352977,-0.04482147,-0.0011247615,-0.004151689,-0.076496705,-0.03523861,0.03074604,0.10286289,-0.008599825,0.045464627,-0.12855068,0.011617051,-0.05998666,-0.0059933076,-0.033469412,-0.01835405,0.03051255,-0.06124109,-0.06867766,0.021683954,-0.04728295,0.05772863,-0.02246664,0.030496761,-0.05976917,-0.08927755,-0.017973144,0.05919074,-0.0012511549,0.0087380605,0.062797606,-0.03487178,-0.09929279,-0.01916084,-0.0012039058,0.028741745,-0.025280226,0.035983216,-0.0012191994,0.018285502,-0.048875395,-0.07181499,0.17833208,0.009645631,-0.015287578,0.03607947,0.04140912,-0.04021114,0.042839278,-0.05908678,0.127455,-0.07887832,-0.06008209,-0.035562545,0.053939555,-0.04091323,-0.011285527,0.08681815,-0.05220416,0.011552311,0.03404877,0.05092216,0.06347851,-0.026657466,-0.034293924,-0.0651815,4.155692e-05,-0.058670923,-0.06454113,-0.033521082,-3.3958294e-33,0.02441051,0.037489153,0.0041058483,-0.07323862,-0.020204725,0.00806526,-0.024710732,-0.01561594,0.0061786976,0.05412452,-0.016187986,-0.08031267,-0.0036722447,0.09044089,0.11756112,-0.07886806,0.040663924,0.034552228,0.034718007,-0.0066735838,0.01297487,0.027497564,-0.055703826,0.03772356,0.007383502,0.019136673,-0.03915355,-0.07600003,-0.01064868,-0.0007712927,0.020143451,0.024529442,-0.063045934,-0.06534342,0.028210407,0.017103596,0.022297163,-0.03902709,0.08046074,0.010917112,-0.031226337,0.07741144,-0.008805793,-0.053819086,0.0037646827,0.036201347,-0.033790257,0.02859395,0.039042786,0.035004586,0.0050504315,0.026031286,0.08321582,0.026904738,0.06699973,0.013413481,0.08449204,0.05595099,0.11761941,0.13998236,0.05795564,0.008710409,-0.057777792,0.03300318,-0.0033352138,0.04734381,0.04696469,0.017603027,-0.024412312,0.06895289,-0.11261832,-0.07029501,0.11766721,0.020411193,0.00901513,0.063622065,-0.11870331,-0.06477466,-0.12459589,-0.048919123,-0.05253304,0.033187553,-0.01576777,-0.008092801,0.024503205,0.034479026,-0.106108375,0.0069015226,0.041012596,0.031140499,0.009373196,0.00420397,0.02634494,0.04361425,-0.04473614,2.8767943e-33,-0.07468677,-0.081559554,-0.04965218,0.14234684,0.02476023,-0.04851996,0.050200984,-0.058333613,-0.05904817,-0.0061599268,0.002080912,-0.029763088,0.06408978,0.0025453372,0.04008379,0.013284133,-0.07886283,-0.03184844,0.08790462,0.026270423,-0.03086048,-0.0056441743,0.049664352,-0.07130445,0.025245551,0.027519435,-0.031491943,0.03665334,0.046496127,-0.04315508,0.0051046996,-0.08413595,0.058417667,0.08061865,0.004580987,0.043052003,0.02238899,-0.011002086,0.035972405,0.053962212,0.07663854,-0.001328136,0.0014151621,0.14393836,-0.031463765,0.007327491,0.010864072,-0.040607937,0.029697174,-0.013364271,-0.005187124,-0.020307297,0.10524474,-0.04013708,0.021261333,-0.007797185,0.0059932377,0.0018090542,0.003797299,-0.07499971,0.050293308,-0.042262264,0.040067997,-0.010455704,-0.007067536,0.051296618,-0.010682031,0.033707008,-0.033310577,-0.00089456857,0.029179713,-0.0012639845,0.028308824,0.0062162518,-0.060196072,-0.007840792,-0.01863896,0.024036711,-0.05074238,0.03932168,-0.06758382,0.005036187,-0.027245749,0.004653823,-0.0026330121,-0.02604488,0.031408403,-0.027203638,-0.08420605,-0.09947333,-0.014172,0.061590858,0.03404419,-0.030192383,-0.06602577,-1.0246496e-08,0.07832647,-0.029802699,0.013500767,-0.006830043,0.10364272,-0.018044578,0.026204128,-0.05957763,0.05469515,0.042760294,0.07808205,-0.08327835,0.025517294,0.041997924,0.12658593,0.038078986,-0.03345441,0.048400763,-0.024269972,-0.04080332,0.029028391,0.020584583,0.056035534,-0.0031825956,-0.03183045,-0.01769908,0.063278206,0.055276148,0.043894038,0.090458386,-0.070900366,0.019647667,0.048578113,-0.073349886,-0.013524052,-0.026263397,0.045650575,0.0372922,0.052605167,-0.06268373,-0.012318167,-0.06102363,-0.025399989,-2.5400379e-05,0.088269725,-0.025234986,-0.05630548,-0.1410375,-0.01693987,0.024489902,-0.034543157,0.039553683,0.018240051,0.06754573,0.055410586,0.01967867,-0.024256475,-0.026646534,-0.015321115,0.04628842,0.10173998,-0.0014280891,0.08728214,-0.031094644
Intel Core i7,0.004900303,-0.021385107,0.021827415,0.039576378,0.033733588,-0.047479473,0.044909015,0.04450999,-0.068872236,0.01460657,0.022310238,0.008110262,-0.08650649,0.050534602,-0.0039534997,0.03230248,0.06401264,-0.06665668,0.014157958,-0.044609893,-0.061671164,-0.007498907,-0.09742871,-0.005921055,0.07053233,0.02810431,0.024000779,0.00065942144,-0.045053583,-0.04659055,-0.05730055,-0.06370283,0.07060492,0.05580685,0.04922641,-0.029294558,0.06464909,-0.04579124,0.007865295,-0.07947728,-0.074853264,-0.034234084,0.07520125,-0.022523537,0.032232866,0.043146715,0.015724612,-0.05962903,0.04644185,0.016505186,-0.044115927,-0.016092133,-0.0517686,-0.02531475,-0.003134496,-0.029035928,0.0029895827,-0.011004139,-0.00052135764,0.060236447,0.10159288,-0.14841177,0.045566034,0.03577078,0.013746759,-0.032749206,0.090641245,-0.021040687,0.018368583,-0.0724307,0.04620359,-0.002493382,-0.04091569,-0.005336771,0.022583693,-0.006336054,0.023176374,-0.07240946,0.017537605,-0.09794621,-0.05077616,0.012848233,0.028932028,0.0040283436,0.040074352,0.016344897,0.03887267,0.018496726,-0.039642,-0.062920205,0.03843461,-0.0022607797,0.02665704,-0.0030702758,0.05829302,-0.012948719,0.04447869,-0.060370125,-0.05553884,0.11775721,-0.005988433,-0.0031748244,-0.0074626515,0.035784632,0.007116127,-0.009999146,-0.08296633,0.077004194,-0.12362983,-0.043650266,0.0028876348,0.038664877,0.03131082,0.0229397,0.058949765,-0.089181066,0.0115266405,0.0075541846,0.044861667,0.1164892,0.017415034,0.016692063,-0.01306959,0.038214725,-0.095588624,-0.071985066,-0.07210835,1.5298113e-33,0.029657738,-0.016684627,0.0030436725,0.0072623556,-0.042266317,-0.040276594,-0.017710265,-0.058575317,0.0026856777,0.028505936,-0.028457848,-0.053943843,0.019830212,0.03168595,0.06421302,-0.06362929,0.056100383,-0.004185536,-0.037294798,-0.0011872171,0.01775455,-0.039798353,-0.046526764,-0.08344839,0.05014587,0.08014201,0.014679528,-0.0124550145,0.013035901,-0.015621672,-0.012562829,-0.049980234,-0.02395599,-0.063773625,0.026534988,0.018813772,0.019509315,-0.007071415,0.011102547,0.059149973,-0.022977648,0.06409991,-0.01331192,-0.01732167,0.0747855,0.02577948,-0.022268753,0.0080536185,0.0038709892,0.0069134077,0.007744699,0.002899464,0.019515669,0.044869892,0.020354874,0.06448372,0.06111546,0.061864465,0.1327328,0.08863375,0.011430045,-0.10195286,-0.09286521,0.04294645,0.022528328,0.057315394,-0.008618087,0.014131003,-0.06350267,0.036334496,-0.07207705,-0.0596073,0.09591505,0.0085484525,-0.027550397,0.041815013,-0.13620238,-0.073376216,-0.11697017,-0.040134247,-0.017335076,0.016055733,-0.00950409,-0.0106962845,0.038885396,0.028952507,-0.097402774,-0.027307838,0.049884666,-0.0029592644,-0.018365499,0.055106167,0.051821534,-0.032939482,-0.07722695,-1.7281176e-33,-0.055581916,-0.0890006,-0.03302656,0.114074744,-0.029448856,0.015048421,0.012751076,0.015936995,-0.09666556,0.0061868783,0.065731205,-0.03620604,0.028183592,0.043830853,0.038348697,0.06133752,-0.05197088,-0.046504535,0.12796114,0.009538427,-0.04763114,-0.047451243,0.01342966,-0.042899795,-0.012654816,-0.016747387,-0.08966356,0.00035968117,0.10828294,-0.0042157904,0.07508932,-0.07925597,0.037204176,0.028104333,0.020640563,-0.014597542,-0.031120002,-0.07750197,0.028018653,0.048865426,0.028633218,0.02786488,0.044526722,-0.0172693,0.005385409,0.00012530915,0.04793389,-0.014618552,0.029990556,-0.059401616,-0.021366412,-0.08866008,0.06792422,-0.0679085,-0.084734306,-0.029782087,0.05612414,0.011919789,0.05978397,-0.048470687,0.1288628,-0.01930233,0.022191975,-0.0686397,0.045406498,-0.018103205,0.011017881,0.03519691,-0.059363615,-0.07411657,-0.040585395,-0.03419714,0.0612526,-0.062166557,0.038985245,-0.11295195,-0.0017212821,0.038653214,0.022688719,-0.031838495,-0.012577633,-0.015589227,-0.01907973,-0.025363795,0.036109664,0.001219425,0.02187133,0.006894117,-0.024851896,-0.06555146,-0.041755833,0.02631357,0.024138212,-0.051359013,-0.1418383,-1.5645806e-08,0.11318635,-0.06648781,0.05357446,0.025259411,0.05734798,-0.06807797,0.010716103,-0.042473067,0.043297715,-0.001158486,0.056370117,-0.056146715,0.013802761,0.012510981,0.091186084,0.035230733,-0.0067888047,0.023328135,0.014276344,-0.024597341,0.07873044,-0.013924616,0.060337402,-0.040235985,-0.013298701,-0.004965538,0.0481407,0.08652642,0.05012827,0.003002231,-0.10469174,0.058282014,0.0904592,-0.07934857,-0.007212389,0.024157044,0.094224855,0.041952044,0.09919685,-0.022540852,-0.02031291,-0.010136392,-0.0037108036,-0.035134215,0.05834994,0.009958588,-0.046069555,-0.082477145,0.02022733,0.020205727,-0.030059516,0.053039353,0.06640336,0.078240186,0.0901293,0.04417501,0.021335326,0.034680024,0.049408827,0.030155495,0.079293765,-0.06364622,-0.034761906,-0.0492353
storage,-0.016369928,0.043020334,-0.08599141,0.056461018,-0.007435602,-0.024729744,0.060556125,0.031384915,0.058687113,0.06008214,0.061901946,0.0624638,0.03244371,0.0061606723,-0.07637378,0.014385855,-0.039856184,-0.0005648811,-0.11031994,0.047905218,-0.050834637,-0.024171542,0.016342979,0.014561053,-0.004473257,0.08660643,-0.065279,0.0028213505,0.052135386,-0.12882985,0.026506674,-0.0007732642,0.01351554,0.009865894,0.040760916,0.026048146,0.017972704,-0.015419736,0.002722296,-0.096749194,-0.020743424,0.00057030533,-0.024817396,0.008845561,-0.026514968,0.0527153,0.028236145,0.010681004,0.025407221,-0.0110654235,-0.014603488,0.045883823,-0.08677604,0.089272335,-0.00076996064,0.038155656,0.0068264836,0.017402053,-0.07107953,0.030058244,0.087342545,-0.023881234,0.0131573975,-0.00034647464,0.03922349,-0.000265573,-0.00078059576,0.059820402,-0.01955073,-0.0005357969,-0.024592405,0.08603725,-0.080135725,0.05610391,0.03396835,-0.059648458,0.10290492,0.006954949,0.06859497,0.022830844,-0.005644054,-0.050012425,0.0037242165,0.03029463,-0.057087988,-0.036650922,-0.02006989,0.022117706,-0.08972882,-0.09473476,0.0013162692,0.059713576,0.045423806,-0.0088962335,-0.12320445,-0.0006154336,-0.0011072301,-0.00336303,-0.008702696,0.1650195,0.064244196,0.076965,0.0807813,-0.031671207,-0.05843324,-0.10396285,0.019498147,0.06196493,-0.023296807,-0.007516269,-0.062601574,0.0031110297,-0.10494644,0.045010097,0.026280293,0.027309855,-0.096910864,0.06074764,0.011965446,-0.012712594,0.054176938,-0.029729817,-0.008728113,-0.011139834,-0.047746688,-0.08092056,0.01746998,-3.1389387e-33,0.022760915,-0.066197135,-0.006042101,0.059935477,0.0036198008,-0.017074648,-0.009012843,0.04778354,-0.03797857,-0.009095854,-0.028972823,0.04898047,-0.06196341,0.04226368,0.14898778,-0.012534994,-0.049555853,0.06827223,0.0070374985,-0.091081016,0.012615998,0.015306527,0.012117497,-0.0043375995,0.07127807,-0.0051229177,0.04184914,-0.08623466,-0.014067274,0.005739566,-0.06180939,0.0049400087,-0.0101781655,-0.028283732,0.09682532,0.073815264,-0.0010788249,-0.03591818,-0.003362616,-0.06252144,0.014841447,0.036181584,0.016971644,0.012367491,-0.05361665,-0.0013371508,0.033633664,0.010855643,-0.09363605,0.104293235,-0.015525994,0.025262304,-0.08936905,0.02415845,-0.013956508,0.027181279,0.005904861,-0.08063979,0.015831444,0.0025364845,0.016994765,0.020708384,0.036649954,0.011253311,-0.046333145,0.008179073,0.029468317,-0.038976844,0.097324,-0.016366793,-0.045907427,-0.10039407,0.07670457,0.0063711037,-0.015102062,0.0077158133,-0.037838995,-0.031014483,-0.11196805,-0.059027314,0.0010762535,-0.1250343,-0.034520067,0.098273486,-0.046890013,-0.05780352,0.04361393,-0.049257405,0.005032354,0.016834019,-0.056542873,0.021817394,0.049604964,-0.067883916,-0.0754479,2.9249769e-33,-0.0028208464,-0.050623532,-0.08896562,0.049745437,-0.039781597,0.014212676,-0.01883585,-0.052182615,-0.044741318,-0.03821737,-0.12470397,0.0034213308,0.07783076,-0.0049319146,-0.048262615,0.023111193,0.08941166,-0.057034552,0.05783067,-0.008174139,-0.043019246,-0.0076155346,0.0627314,0.053140864,-0.053693686,0.0502584,-0.021881372,-0.026963674,-0.035458777,0.020415382,-0.021531645,-0.122653164,-0.012914615,-0.015835011,-0.042605314,-0.057581842,0.068127446,-0.0060244547,-0.06291354,-0.01039759,0.035685983,0.011440012,-0.01197251,0.074532695,0.028251246,-0.02352542,-0.064148754,0.034490716,0.07681778,0.010215161,0.03493714,-0.0071990085,-0.02338331,-0.056863982,0.019787924,0.044919156,0.0046840715,0.01086542,-0.013310232,0.015899846,0.017523533,-0.014710446,-0.01226076,0.005553256,-0.09700202,-0.0316007,0.07064939,-0.050881088,-0.11256802,0.072032176,0.039059788,0.001108013,0.051017806,0.049593266,-0.04576371,-0.022331618,-0.0311583,-0.0072679752,0.066265754,0.00038316828,-0.0798865,0.020282703,0.0016136131,0.019101257,0.02662963,-0.04158222,0.011413547,-0.004070169,-0.06050679,-0.0692938,-0.0025526993,0.05685897,-0.11129814,0.038536128,0.04442874,-1.0897759e-08,-0.019383147,0.041261878,0.028275039,0.062560715,0.009591432,-0.07632081,0.10510741,0.16414429,0.096750915,0.06434926,0.08935984,0.0050675655,-0.07329677,-0.04034662,-0.021251928,0.055952094,-0.038138565,-0.0634385,-0.045194075,0.041985396,0.08705204,0.019366473,0.057349466,0.029328687,0.10125305,-0.05770504,0.10156821,0.059549276,0.034465924,0.029804941,0.06380598,0.01191688,0.07545051,0.0012151103,0.042481277,-0.007572381,-0.0037987088,0.051957753,0.022545135,0.0036980791,-0.018635385,-0.044966917,0.012447031,0.003412672,0.044104174,-0.03991479,-0.016570337,0.06659704,-0.03485716,0.035422076,-0.063723736,-0.022223057,0.0021045608,0.07249617,0.040660284,0.015486229,0.00067445304,0.030082295,-0.010243212,0.06475608,0.066705205,-0.0048598195,-0.027142664,0.013912325
512GB SSD,-0.0142464265,0.04942849,0.010784106,0.06002506,-0.012937884,0.017577304,0.027864102,0.0059586875,0.0380999,-0.034599666,-0.029106995,0.061841924,-0.005741623,0.03062219,-0.056739848,0.034034796,0.008752816,-0.009609503,-0.021697585,0.036034733,0.04257758,-0.0089734215,-0.046029884,-0.010843463,-0.014753566,-0.009801486,0.070698164,-0.061124228,-0.03849444,-0.006223189,0.078817815,0.0029755686,-0.08083162,0.07058287,0.012736141,-0.027993185,0.06270716,-0.04411071,-0.0493367,-0.0883567,-0.00082972867,0.009908741,-0.062045272,0.07312605,0.08123529,0.056786574,-0.023752011,0.05037882,0.039815754,-0.045175124,-0.04554348,0.019073935,-0.068689175,0.057099905,0.014652039,-0.01900309,0.09264398,-0.024992801,-0.021453341,0.010033694,-0.023806565,-0.09569352,0.045061935,-0.010104821,0.036569852,-0.006452405,-0.026116068,-0.022811765,-0.027733635,0.03472158,-0.0052258,0.010776129,-0.02139324,0.067234844,-0.0030916142,-0.072288424,0.051333074,-0.0035631475,-0.0060373573,-0.007770653,-0.0630377,-0.024228286,0.001429664,-0.010884771,0.07557903,-0.00415536,-0.011891486,0.07474,-0.045955557,-0.033080135,0.06207804,-0.010551481,-0.064274326,0.017283322,-0.09065276,-0.004379759,-0.040269703,-0.07853097,-0.07131278,0.06850549,-0.01603212,0.07897347,0.01922819,-0.0381627,-0.08864194,0.056297775,0.04717967,0.12571537,-0.059801016,-0.032603994,0.032313515,-0.032226264,-0.034477104,0.12325729,0.03258712,-0.052830048,-0.057275042,-0.015585764,0.016050383,0.023584604,0.049626704,0.02782089,-0.08499883,-0.004979976,-0.07554489,0.034536436,-0.0066374154,1.9494003e-33,0.12584038,0.017762756,-0.08932445,0.023520552,0.019601544,0.020696951,0.028016234,-0.05690646,-0.006991002,0.05557301,-0.048391845,-0.051386192,-0.024895104,0.022977807,0.09191263,-0.028495276,-0.06449122,0.056054898,0.022632472,-0.08077283,0.06935463,0.069754586,0.02001152,-0.0362334,0.043392453,-0.035997853,0.027950779,-0.048180275,0.054307505,0.05895917,-0.060991153,-0.10661583,-0.046219226,-0.056562692,0.13583824,0.03224115,0.060848586,-0.034782913,0.007561649,-0.10968323,0.015445843,0.0658942,0.027877757,0.034172017,-0.10026426,0.055538196,0.036813248,0.03744163,0.011712781,0.06955943,-0.051915266,0.02203452,-0.005929101,0.016798297,-0.016995411,0.06522069,0.036068056,-0.031081654,0.078567006,0.037716843,-0.052015185,-0.040458575,0.07280962,-0.014223742,-0.02501252,0.005671373,0.07164122,0.059084438,0.014430384,-0.03963171,-0.023603922,-0.099002615,0.10118335,0.019151581,-0.020666033,-0.061606485,0.006173804,0.01980408,-0.01849905,0.01360556,-0.07606715,-0.06409107,-0.041914076,0.06281134,0.023491882,0.05975587,0.058960583,-0.0041664736,-0.048551034,-0.028463012,-0.042750273,0.021538822,0.07268884,-0.0421116,-0.085387304,1.2356899e-34,-0.059833433,-0.0091369115,0.0046036677,0.018850721,-0.027736934,-0.037518833,-0.045554884,0.11445617,-0.014388402,0.06743946,-0.010252814,-0.025594387,0.056303114,0.024837619,-0.10004647,0.016112795,0.052044027,-0.021181596,0.07004588,-0.054810952,-0.042351246,0.094449386,0.13789889,-0.027239462,0.030272698,0.06496671,-0.034535863,0.06460727,-0.07811742,0.029012555,0.011341729,-0.034492437,0.01797431,0.02522597,-0.012680134,-0.05275764,0.061942603,-0.04965678,-0.0032464017,0.007471026,0.0065602805,0.014404527,-0.01325598,0.071843356,-0.02388783,0.01346346,-0.0031683387,-0.011736492,0.06848672,-0.025980683,-0.045815557,0.07884137,0.07603058,-0.024552798,0.028456874,-0.15241951,-0.013297168,0.03422615,-0.03547899,-0.057429917,0.03704615,0.09826849,0.052328087,-0.04493443,0.017470602,-0.035532005,0.071798176,-0.054633245,-0.0026154765,0.026997196,-0.0565035,-0.03206711,-0.021708004,-0.018964238,-0.032547154,-0.02567165,0.04434222,0.03714904,0.10474608,-0.005886815,-0.039988324,0.081796475,-0.018916821,-0.010936185,-0.007493501,0.003728905,-0.036224626,0.027663633,-0.07243116,0.01460521,-0.04683177,0.065051295,-0.015487382,-0.01649609,-0.05020545,-1.30835875e-08,0.0059154336,0.03752323,0.059358742,0.029862115,0.0025862723,-0.15962134,-0.015483274,0.09407057,0.08872782,-0.020864695,0.09501609,-0.05263485,-0.05729327,-0.08311216,-0.0018432457,-0.05244299,-0.042729225,-0.0013000532,-0.045388922,-0.012612782,0.101976976,0.043954406,0.056465544,0.021742525,0.08215876,0.004796488,-0.0063622026,-0.013044282,-0.0023057146,-0.018451164,0.029084425,-0.018151324,-0.021383883,-0.04463006,0.10526988,0.0093306415,-0.023661388,0.05709322,0.095472224,0.01323173,-0.02073718,-0.012784939,0.046973243,0.005690119,-0.039913088,-0.04059107,-0.051560413,-0.052980047,-0.037108287,0.05273584,-0.034695208,-0.08471987,0.0006048083,0.013552799,-0.0641709,0.04208376,-0.019462919,0.032742575,-0.07137533,0.07527646,0.08900154,-0.038693964,-0.10159605,0.040343843
graphics,-0.012894678,-0.0043537323,-0.029448116,-0.01643303,-0.0002313725,-0.068257056,0.072718374,0.043254048,0.034870703,-0.024648966,0.03659445,0.0023307838,-0.012098971,0.025819324,-0.03230379,0.024709536,0.025112953,-0.008931756,-0.06853486,-0.049367916,-0.04670353,-0.107204,-0.040108223,-0.030726451,-0.004318573,0.08918595,0.03225808,0.0730324,0.04420375,-0.14056557,-0.059476707,-0.029616615,0.068359315,0.011761951,-0.098719425,-0.008279907,0.044286262,0.0053649736,-0.028051095,-0.047309387,-0.08784411,-0.026819678,0.032352876,0.00549204,0.05525834,-0.028946577,-0.012582919,0.022962645,0.0103922915,0.03157586,-0.030798135,-0.05943842,-0.078070074,-0.017080624,0.04553792,0.033670824,-0.015999451,0.020583913,-0.005747474,0.0037938529,0.06230547,0.027591655,-0.05153085,0.108144976,0.053328097,-0.03550857,0.0056639495,-0.055089064,-0.005886315,-0.043876506,-0.020938134,0.013182368,-0.06274738,-0.09136945,0.00571699,-0.034584366,-0.002515982,-0.006828185,0.04796356,-0.07791298,0.05232032,0.027721511,-0.045389652,0.058823936,0.031182935,0.06322903,0.0054285675,0.011324354,-0.0062968247,0.0021419825,-0.02832111,0.01423721,0.008470257,0.043491665,-0.07533897,-0.01489819,0.041521475,-0.16540861,-0.026726063,0.21494165,0.03634878,-0.037732873,0.13025256,0.03606335,0.024646144,0.013198403,0.0009861598,0.041175086,-0.038856663,0.018945243,-0.020873396,-0.004973228,-0.10044069,0.004862687,0.012322996,-0.05107852,-0.04072983,0.0038297658,0.051522803,0.023751,-0.04008124,-0.03200574,-0.023930993,-0.0011109823,-0.01765907,-0.072985485,-0.030457595,-3.0487829e-33,0.018965477,-0.05032944,0.017024161,0.05954697,0.026901469,0.042424586,-0.024970151,-0.098792516,0.035895884,0.093191765,-0.008860555,0.062071178,-0.015549229,0.11946497,0.1217782,-0.060342822,0.0808872,0.10219684,-0.07200647,0.014634871,-0.07035498,0.020332165,0.028013736,0.011114554,-0.025096681,0.07521492,-0.05632203,-0.010675541,0.0011096158,0.0077838246,0.022133369,0.020593112,-0.006239176,-0.050256487,-0.044476006,-0.030803496,-0.013961065,-0.043909725,0.028442215,0.03619835,-0.059980847,0.001201381,-0.03408814,0.016074728,-0.00064238487,0.06253813,0.08952003,0.0022450634,-0.102121904,0.08030205,-0.02287204,0.004961821,0.015376171,-0.0017829585,-0.0046697035,-0.052120272,0.041742142,0.010514313,-0.014622132,0.0058807763,0.034485437,0.08749827,-0.04594398,-0.0027369382,-0.05186709,-0.04017614,-0.012068893,-0.014187232,0.016445795,0.01764216,-0.0883977,-0.005969229,0.11123718,-0.061564837,0.004795013,0.008866287,-0.028164186,0.017132578,-0.08405413,0.021172954,-0.1332944,-0.056672055,-0.01246195,-0.099014245,-0.02891601,-0.010121901,0.0074902154,-0.042058595,0.027526861,0.045523953,-0.15074266,-0.0017297231,0.032931983,0.016326781,0.01831232,2.950584e-33,-0.06650526,0.008861544,-0.0058512157,0.090089686,-0.0005151585,0.052681096,0.04134734,0.028699307,0.019889515,-0.059288315,0.03202077,0.04217418,0.018178014,0.017023964,0.004539825,-0.010220496,0.07554696,-0.03959829,-0.10972586,-0.042984575,-0.0255923,-0.0014689745,-0.038239382,-0.07602699,-0.008188682,0.11911747,0.05677326,-0.077984594,-0.037033178,0.063081026,0.09104313,-0.06718062,0.043300606,0.04059397,0.041669868,0.0101037165,0.15399055,-0.017837875,-0.04865214,-0.025793904,0.04101167,-0.0074631376,0.037869506,0.13696995,-0.025706848,0.049425162,-0.024045618,-0.054344814,0.042582765,0.04473366,-0.039669603,-0.012664019,0.057206605,-0.10852303,0.0013212804,-0.09628326,-0.0719302,0.09859597,0.018322797,0.00090004597,0.018658929,0.0041611427,-0.073992886,-0.072499,-0.051973905,0.010621133,-0.043019973,-0.080434196,0.0013946717,0.046568513,0.022803053,0.0070823007,0.00836053,0.010422683,-0.030599989,-0.055965964,0.04217557,0.06966174,0.03358224,0.005761433,0.03460479,-0.073428385,-0.0025406687,0.089550294,0.004860186,0.01240821,-0.018549275,-0.051841885,0.05078889,-0.026893245,-0.014429946,0.10688272,0.047670394,0.09436217,-0.009140985,-1.2290028e-08,-0.012420012,-0.026762657,0.0825707,-0.052138887,0.037056435,0.05042939,0.06171367,-0.001182958,-0.0114410855,0.04258712,0.041863456,0.0053207143,0.013905441,0.03600239,0.083001524,-0.029688954,-0.009509536,0.0048536877,-0.0140793575,0.0020353522,-0.020529557,0.0044459035,0.047534294,-0.028033571,-0.06723269,-0.03878509,0.04948801,0.06854411,-0.011315111,0.025651224,0.026392521,0.04868967,0.041442096,0.0021427101,0.09544627,-0.028609438,-0.015795972,0.07397575,0.004458984,0.0060131797,0.005326965,0.018666986,0.054074556,-0.053279225,0.017976249,0.022771794,0.040975936,-0.032604583,-0.056925327,0.017684527,-0.07305105,0.03138994,0.0012712487,0.044238977,0.07405775,-0.041480746,0.05639985,0.024217803,0.00016584335,0.10622691,0.0037170765,-0.0009990017,-0.015684675,-0.04897546
NVIDIA GTX 1650,-0.0044875587,0.013670211,-0.0010728191,-0.042251706,-0.054852918,-0.023340952,-0.017515995,-0.04846364,-0.012207312,-0.04814007,-0.010516666,-0.0012574558,0.022524621,0.0033823382,-0.010306722,0.033294614,0.06498476,-0.088681154,0.015869707,0.049309444,0.024644226,-0.050035566,-0.047596067,0.05519376,-0.037354182,0.066344924,-0.0017696806,-0.010037464,0.049330458,-0.026554542,-0.031489246,0.04118234,0.028885834,0.034289304,0.018604795,-0.054038327,0.015712826,-0.06084056,0.0041520502,-0.100212194,-0.046911016,-0.006656138,-0.05200988,0.03364781,0.04959233,-0.022742057,0.045623127,0.042075753,0.09552733,-0.0030992827,-0.019844647,-0.042760566,0.05265456,0.003116145,-0.015281733,0.060032494,-0.06405701,-0.08637178,0.04298762,-0.031824328,0.044822045,-0.07344907,-0.07888129,0.074119575,0.034652695,-0.04409187,-0.0514842,-0.09313328,-0.018430337,0.02807186,-0.013984608,0.034975134,-0.026256595,-0.053727545,-0.0703776,-0.009575618,-0.011131959,-0.0115873935,0.0129890265,0.057254437,0.03928419,0.0012627031,0.056878738,0.030724483,0.04036434,0.0068702125,0.080354586,-0.0047164634,0.04888848,-0.066280715,-0.0725927,-0.0026494924,0.095882475,0.06378356,-0.042304825,-0.051005192,0.05755793,-0.04763238,0.047557898,0.07817735,0.046030626,0.02008803,0.038510453,0.0951436,-0.07119816,0.019349685,-0.073934846,0.07203183,0.0056266044,0.013636486,-0.015275149,0.02489234,0.047051735,0.07244108,-0.07172001,0.012097104,-0.07265058,-0.026794039,-0.00459266,0.04594713,0.019884126,-0.09059785,-0.009593064,-0.042718563,-0.012541861,0.056538094,0.008026051,2.6873289e-33,0.04682988,-0.05826132,0.03594152,-0.005377577,0.07273072,0.10462046,0.06138898,-0.02733922,0.017801438,-0.006622697,-0.051643886,0.050882448,-0.065053955,0.08181215,-0.00995584,0.0062897154,0.007443253,-0.00019509174,-0.037042953,0.02566227,0.040667184,0.03984822,0.031330276,-0.020238126,-0.030824801,0.105613835,-0.04280166,0.004760554,0.033136122,0.036268108,0.02322256,-0.09040788,-0.03252604,-0.015449256,0.050948434,0.0607178,0.025324896,-0.053590223,0.06608734,0.05093199,-0.047295243,0.058531232,-0.029308897,-0.08774907,-0.052880667,0.06267459,0.05070897,-0.062275596,-0.10252008,0.075185016,-0.077535205,0.0406471,-0.06468974,-0.044748608,0.020778386,0.03572158,0.026425,0.068641745,-0.024597352,0.0008984417,-0.029432673,-0.0938056,0.023301201,-0.038283855,0.03101018,-0.015066238,0.051363837,0.017546771,-0.06761028,-0.016731422,-0.05638512,0.10302588,0.047021974,-0.0012311785,0.01400899,-0.03278333,-0.080652274,0.049419925,-0.042917628,-0.01772514,-0.061933022,-0.018996838,-0.036660295,0.029077407,-0.016712856,-0.017642964,0.042553656,0.07430556,0.0018468546,-0.0033677297,-0.13460277,0.004401284,0.046247356,-0.0026296421,-0.036551815,-2.1569063e-33,0.01827532,-0.05674397,0.032507826,0.04739382,0.022275295,-0.00926532,-0.0097106565,-0.0007060414,-0.014207214,0.0036926705,0.07800448,0.106937595,0.06899698,0.10015164,-0.051130585,0.028732156,0.019399682,-0.030084802,-0.074110195,-0.13298681,-0.07929716,-0.032060035,-0.026835859,-0.015973516,-0.012941319,0.01922177,0.06491985,0.005654394,-0.019379545,-0.021199876,0.004361471,0.030769657,0.062148243,0.038160037,0.06412347,-0.005818132,0.13162823,0.016117726,0.0022707202,0.0037102788,0.025159078,0.061187617,0.07476307,-0.017191159,0.023715526,0.05676913,-0.020720225,-0.14093162,0.016723666,-0.013825911,-0.019471234,-0.056301158,0.029763116,0.076259986,-0.04291677,-0.11439604,0.009487395,0.07483815,0.011575364,-0.054118194,0.07086656,0.07373754,-0.103697486,-0.0026346426,0.051859252,-0.066794686,-0.06511009,-0.0045141233,0.017330313,0.05177136,-0.11036342,-0.028852591,0.010070433,-0.011375428,-0.022836387,-0.009042644,-0.016223773,-0.06102449,0.057051703,-0.07888937,0.04105336,-0.11077542,0.028366033,0.00450098,0.001790956,-0.03905956,0.09477173,-0.031793535,0.0131393615,-0.034727953,-0.04235913,0.06325405,-0.033613674,0.012112301,-0.01431887,-1.652538e-08,0.018125799,-0.04821876,-0.042010523,0.099156424,-0.010957683,0.0007674517,-0.07344513,0.0110258125,0.01744249,-0.022287836,0.115459345,-0.14638789,0.04227945,0.0034073147,-0.028629154,-0.024395512,0.02970707,0.025558628,0.0041258656,0.024929589,-0.03602315,0.05126716,0.071727894,0.01761937,0.051812734,-0.055213936,0.0799173,0.0042177457,0.01641294,-0.06529327,-0.08994781,0.06578655,0.079509124,-0.036128473,-0.080977045,-0.030101536,0.012774165,0.08817591,0.11083684,-0.04204507,0.07839475,-0.075056545,-0.032520793,-0.078141026,0.03522643,0.032893606,0.039598398,-0.09148219,0.033227816,0.02486537,-0.0615541,0.026314527,0.056221202,0.02356843,-0.013656552,-0.015685415,-0.039884347,0.101194896,0.012278473,-0.05236085,0.004704793,-0.008774273,-0.013631311,-0.055956014
customer_reviews,-0.12078879,0.01648026,-0.067980975,0.004686575,-0.014698978,0.009898243,0.10850547,-0.012887952,-0.035788856,-0.015414202,0.08269211,0.008752534,0.05494096,-0.016830998,-0.03660879,0.03985662,0.10000247,-0.029733304,-0.04856628,-0.015173977,-0.08617754,0.055701442,0.004617691,0.058571503,-0.030242309,-0.020073121,-0.04322298,0.10571689,-0.06262914,-0.067355536,-0.0061053936,0.080545165,0.06424638,0.03834185,-0.02301843,-0.001755303,0.014690167,-0.0019247736,-0.008298428,0.008085293,-0.06833024,-0.028378021,-0.008203623,0.06385654,0.10069087,-0.003962938,0.0056130467,-0.037474133,0.06503639,0.050799366,-0.023392271,-0.022247974,0.022172539,-0.06884562,0.013088193,-0.02872101,-0.011114298,-0.06625203,-0.02258423,-0.014838237,0.017745307,-0.065446615,0.008461316,0.05529065,-0.036556344,0.022520732,-0.14088202,-0.03732414,-0.057404157,0.015698778,-0.049518403,0.016438471,0.084052704,0.06848943,-0.0025748212,0.038771417,0.06370269,-0.059058778,0.01563844,-0.03835782,-0.013935903,-0.045653496,0.009323202,-0.011057131,0.016804075,-0.030114885,0.107462965,-0.015421393,-0.090907976,-0.0548529,0.056030497,0.04681538,0.018015658,-0.002174859,-0.08972546,-0.0009718083,-0.028995631,-0.10710727,-0.0016744552,0.15007402,0.032307383,0.0533569,0.012930407,-0.02254754,-0.05439478,0.015956508,-0.05108586,0.13336395,0.0029139612,0.0017989149,-0.08776163,0.04721243,-0.039104223,-0.0026404192,0.06984497,-0.019979132,-0.0072831074,0.040017173,0.09475165,0.05743128,0.009625459,0.006765385,-0.04068142,-0.07470687,0.00043033547,-0.01022769,0.06717643,-5.766667e-33,-0.06986126,0.07865169,0.023768775,0.014282479,-0.00823291,0.041758213,-0.022794932,0.040506788,-0.06571915,-0.05478073,-0.003832808,0.0006475797,0.029816246,0.043857194,0.00631049,0.055288035,-0.057825435,-0.0008622884,-0.024397666,-0.02669402,0.004495657,0.012769151,0.018300027,0.051830538,-0.031071125,-0.104736805,0.019339351,0.012984509,0.06557612,0.028736124,-0.057185534,0.020782316,0.029133392,-0.020271437,0.0030715712,0.041062683,-0.049981143,-0.01293901,-0.0060401876,-0.09476701,-0.027190942,0.06189219,-0.08857181,0.008388375,-0.024794338,0.08082,0.005029167,0.0073058163,-0.05755641,0.009152708,-0.012693773,0.008294863,-0.01583101,0.1769765,-0.051372446,-0.025850669,0.066809304,-0.079731256,0.021527123,-0.0316218,0.03697256,0.1313024,-0.01769664,-0.12811647,-0.050244007,-0.011128843,0.020451168,-0.0012003265,0.061631404,-0.016237937,-0.03547337,0.08322105,0.0036402524,0.01109247,-0.06674767,-0.06607941,-0.10718325,0.027054287,0.011709742,-0.021679055,0.008536347,-0.06887587,-0.026536657,-0.04498117,0.0020243896,-0.0060609244,0.017345626,-0.05928131,-0.023655327,-0.022991596,-0.11133076,0.10018836,0.06520794,0.040612113,0.055147316,2.7772771e-33,-0.0949587,-0.044622198,-0.04356259,0.0808521,-0.08007561,-0.039485823,-0.09540475,-0.011874618,0.009351455,0.08009775,-0.024951488,-0.12298346,-0.02295735,-0.010105163,0.05104657,0.03208483,-0.0055743135,-0.060108405,-0.018525418,-0.0033749873,0.046866734,0.039750397,-0.050166108,0.029448217,-0.012997388,0.047897518,0.086825535,-0.029100657,-0.022668686,-0.05842708,0.01903235,0.002882622,-0.012265645,0.08492177,0.016867029,-0.046944577,-0.048890386,0.005541239,0.0053099687,0.09871515,0.075990684,0.05661281,0.034950152,-0.043700293,-0.075599186,-0.01782572,0.05829971,-0.070210665,-0.016282178,-0.013770609,-0.13123909,-0.0112917,0.009192239,0.05060191,-0.09107007,0.022867082,0.03200482,-0.026932366,0.06099187,0.031504136,0.07291282,0.054661285,-0.018660607,-0.018167492,0.005230045,-0.055710398,0.096210994,-0.05493981,0.07567103,-0.008690102,0.00026441703,0.032956194,-0.062512904,0.04805706,-0.010769128,0.0044179554,-0.03345537,-0.06217063,-0.037715122,-0.046158172,0.04564991,-0.058938347,0.064073384,0.0051835515,0.013819334,-0.1524466,0.073009156,0.0077299825,-0.03013041,-0.063760266,0.04010244,0.0078217825,0.0016843474,-0.10264168,0.012025973,-1.4230906e-08,-0.029549642,-0.0277155,0.05060393,0.09038345,0.036782715,-0.042230695,0.05550216,0.06533793,-0.0012717242,0.025289677,0.050727278,0.024956446,-0.07983457,0.0028596013,0.043820206,-0.028033603,-0.0010011361,0.06087273,0.0067666764,0.028160421,-0.017251235,0.07860094,0.031429093,-0.039964058,0.027392756,0.024436533,0.01488743,0.032204796,0.008477603,-0.061424717,0.034869798,0.032620247,-0.035021212,-0.046858497,-0.0016662792,0.04673936,0.024702622,-0.03387062,-0.017327765,-0.034775026,-0.02232412,-0.0010670646,-0.038942583,-0.018949011,0.043643016,0.009833366,0.035741985,-0.03239574,-0.044416398,0.033373967,-0.009208035,-0.005807645,0.08273517,0.0642966,-0.044872,-0.035339024,-0.033236362,-0.036045596,-0.017271603,0.06832952,0.025018344,0.0086412635,0.074166216,0.062630236
user,-0.054399956,0.023593925,-0.032389987,-0.002817758,-0.088089675,-0.08651704,0.13981207,0.09583298,0.005685035,-0.027901521,-0.009480956,-0.035570506,0.007825173,-0.019301314,-0.015361299,0.0026861343,-0.018370045,-0.00740289,-0.05236327,-0.00568569,-0.02365495,0.011011709,0.0040583303,0.017257174,0.017185034,-0.038330738,0.0029477898,0.071829654,0.038762588,-0.0008342828,-0.009555884,-0.0075182454,0.074362695,0.02794505,-0.023526913,-0.02061983,-0.013892284,0.039799917,-0.029599244,-0.022141902,-0.013193495,-0.07716308,-0.07008359,0.01859605,-0.024155837,0.04159768,0.025330653,-0.007654755,0.07792769,0.08560093,-0.002320684,0.026502749,0.0021514602,-0.0012813861,-0.009105548,-0.02538508,0.006909066,0.07071907,0.0017182983,-0.042692635,0.053794425,-0.003917689,-0.10962781,0.04072952,0.05918581,-0.010536973,-0.048857566,-0.019694068,0.0014786418,-0.034762677,-0.026472658,0.049117383,-0.016017478,0.00338368,0.044247072,-0.04896609,0.03608059,-0.02812714,0.06560024,0.065895915,-0.0024978006,0.041042745,-0.017387964,-0.030524313,0.0076451562,0.07121532,0.03399621,-0.009765787,-0.020760467,-0.010051418,0.12455628,0.08114368,0.14120865,-0.05323971,-0.09784518,0.024067834,-0.01560609,0.0027564815,-0.101192236,0.25194246,0.00010081943,-0.021140952,0.022176063,-0.067965075,0.05535407,0.039617702,-0.073848926,0.051600125,-0.06351693,-0.02839633,-0.053079713,-0.034448966,-0.011997318,0.023348765,0.05778608,-0.009523238,-0.066755846,-0.007728003,0.011748993,0.0023615593,-0.041362755,-0.011531816,0.0052539487,0.04457302,-0.058624845,-0.11415904,0.04127092,-3.948367e-33,0.026177226,-0.03585055,0.013440624,0.045085393,-0.056033183,0.0324905,0.02188971,-0.04276775,-0.07301796,0.02680689,0.00056051166,0.068746105,-0.024718417,-0.011147575,0.098017566,-0.014890597,0.06719947,-0.04197281,-0.037548658,0.024180014,-0.027665801,-0.0067771454,0.01875569,0.13720366,-0.04718684,-0.0441022,0.010038558,0.033277415,0.08226366,0.04165751,0.009187394,-0.006806122,-0.022128053,0.020246582,-0.06587272,-0.039640285,0.033733655,-0.019687736,-0.0057027447,-0.0010569507,-0.0061137294,0.015241794,0.005166099,0.020570772,-0.07305894,-0.020204933,0.1300741,0.05939093,-0.047691837,0.054688342,0.03292866,0.025782743,-0.0886224,-0.0033794304,0.006580781,-0.0051356438,0.013872205,-0.03740287,-0.043960135,-0.07382049,0.06559602,0.12353103,-0.0065677683,-0.019632561,-0.045445014,-0.11361563,0.0202979,-0.062026862,-0.012988805,-0.002160535,-0.07420908,0.012297723,0.10667649,-0.005696915,-0.012280662,-0.032473564,-0.03374784,0.08715364,-0.058407858,0.056146357,0.003322989,-0.05280721,-0.05396705,0.0025374438,-0.032853104,0.053438723,-0.084833615,-0.075520195,0.037423108,0.01095876,-0.019931242,0.010349275,0.06588672,0.12158028,-0.031089673,2.1596482e-33,-0.07576555,0.019999187,-0.03816742,-0.05025262,0.08023513,-0.007418211,0.050186947,-0.0077332417,-0.06689693,-0.0016317149,-0.04751476,0.004274134,0.079784535,0.03638256,0.02442287,0.030905524,0.032311115,-0.041318323,-0.036836203,-0.011826119,-0.07151683,0.004555913,-0.060818397,-0.02337792,-0.044024054,0.008137161,0.11667181,0.0038225222,-0.0041343537,-0.017228985,0.101253025,-0.033708565,-0.103379436,-0.066661984,-0.07622277,0.09695773,0.0037900223,0.08917301,0.0062435726,-0.007179196,0.089021266,0.073282994,0.056888264,0.07624631,-0.07103698,0.07621461,-0.021171613,-0.019437168,0.015807237,0.059250593,-0.054626636,-0.004731501,0.06061337,-0.05274193,-0.002521292,-0.072437555,0.013607432,-0.102543876,0.077820525,-0.007877259,-0.09732645,0.013880095,-0.02528797,0.08447201,-0.03306955,0.011825907,-0.04248823,0.015238554,-0.0131449625,-0.029317474,0.099531434,-0.06413585,-0.041114282,-0.018966183,-0.028780853,-0.058385868,-0.101217486,0.02950353,0.01624894,-0.0037193524,0.014827453,0.02506617,-0.015154339,0.011061072,-0.05370186,-0.09545179,0.01858054,0.05380375,-0.011483124,0.038529996,0.012905876,-0.0012028598,-0.07144618,-0.058983646,0.006199757,-1.2471995e-08,-0.025552824,0.07312754,0.06782572,0.06312249,0.045008585,0.031205734,0.008943823,-0.010702005,0.002870654,0.079327144,-0.016204173,0.012072816,0.008946503,0.02271534,0.07469539,-0.07268048,-0.036579512,0.06308643,-0.064316906,-0.022434486,0.021750668,0.04654463,0.0036925557,-0.025196461,0.016900875,0.043791357,-0.008790773,0.097584985,-0.040525816,-0.07070555,0.0014393526,0.11136744,-0.023188146,-0.04456654,-0.031155003,0.033773202,-0.06164708,0.0073096203,0.0048084483,0.009699021,-0.013011837,-0.057311255,0.046108443,0.00033952494,-0.022555158,-0.027904717,0.062245023,-0.045213282,-0.007524753,0.0054970174,-0.045736518,-0.01404031,0.041873034,0.045312937,0.015191107,-0.021179236,0.04844487,0.047024194,-0.09704816,-0.01800809,0.07858612,0.05685778,-0.035333578,0.03611645
JohnDoe,-0.099580996,0.035428252,0.06582849,0.023118485,-0.021008635,0.059826188,0.078068726,0.10414161,-0.0014788333,0.062944494,0.0048997,-0.09006171,-0.008868625,0.033641547,-0.05274854,0.015271587,-0.043970194,0.057602804,0.009486535,-0.048943374,0.007836468,0.06043091,-0.07662396,-0.015208367,0.027952418,0.040484913,0.023062924,0.03816443,-0.09591904,-0.046992816,-0.019587029,-0.046246026,0.055195816,-0.00018228714,-0.039419543,0.024695022,-0.026102189,-0.05902274,0.013419623,0.038096167,-0.024198223,-0.09484686,0.044282876,-0.05559503,-0.04701987,-0.0066565373,0.03827162,-0.010018785,0.05137009,-0.025126928,-0.09925896,-0.080516346,-0.02657791,0.0073843924,0.039092734,0.029779634,0.023992429,0.067015864,0.011952889,-0.061174817,-0.0077323783,-0.0015520407,-0.06529519,0.015917914,0.039944023,-0.046943612,-0.01674112,0.03304743,-0.014223315,-0.013529701,0.013394118,-0.018768972,-0.025763338,-0.03290944,-0.031626005,0.0606711,-0.031380713,0.06303364,0.020327322,-0.025927017,0.053299278,-0.08074252,-0.042608056,-0.08997151,-0.015332226,0.038191527,0.0046576043,0.067735,0.031570952,0.040402792,0.000176318,0.033731587,-0.07869839,0.02471245,-0.052381508,-0.012480565,-0.0038850242,0.018041512,-0.14484169,0.15508686,0.026417011,0.06523226,0.088061914,0.0043959413,0.07854457,0.009043463,0.026056694,0.028641883,0.057179093,-0.10336407,-0.06479994,-0.006148953,-0.09580896,-0.001036235,-0.024042707,0.03083058,0.048264764,0.032026723,-0.024683977,-0.073103465,0.06434462,-0.014216126,-0.030273087,-0.016397778,-0.015894175,0.06687176,-0.021966783,-8.656499e-34,0.03339593,0.0026396762,0.03969338,0.053385228,0.0035364323,0.04165704,-0.06192123,-0.00072129536,-0.0006744583,-0.089196,0.01473958,-0.018387375,-0.026339866,0.0077372924,0.011267329,0.03239014,-0.034832735,0.005181572,0.025473004,-0.035844453,-0.024616143,0.0271576,-0.010752779,0.023772852,0.010068689,-0.0028881505,0.049816273,-0.067076616,0.05790263,0.02212296,-0.07557284,0.04004479,-0.0022742955,-0.0100430185,0.019428276,-0.03435659,-0.05958198,-0.13646565,-0.008992079,-0.02428644,-0.04210362,-0.0048597855,0.039158545,-0.000999543,-0.05389849,-0.046492796,0.00890297,0.015943471,0.04991913,0.037238393,0.05919375,-0.041912165,-0.06446308,0.043873485,-0.026075656,-0.014522328,0.01567822,0.08585888,0.06160412,-0.022404201,0.066820614,0.08146756,0.09015891,0.005031023,-0.011073979,-0.077581756,-0.069183074,-0.0098223975,0.036832083,0.088898405,0.03534509,-0.012832239,0.0799686,0.039058246,0.032997385,-0.066044584,-0.008221567,0.039210938,-0.020942615,-0.023290183,-0.0037156704,-0.017478157,-0.0074716453,-0.033607215,0.052212756,0.10941499,0.067055725,0.004586402,0.018734183,0.051827475,-0.02653291,-0.045468252,0.043400463,-0.032799516,-0.033170085,1.4485658e-33,-0.08618078,0.04512437,0.07518047,0.052025743,0.09411453,-0.042065706,-0.004662299,0.05788494,-0.044455275,-0.11306772,0.016098714,-0.078494154,0.1349939,-0.017234923,0.06490608,0.01996447,0.01766015,-0.0651172,0.03747824,-0.0013125605,0.022106782,-0.06892425,0.0062931683,0.03527116,0.008302637,-0.033510566,0.02417734,0.025434198,-0.09511574,-0.016090162,0.015834251,0.056139518,-0.08183493,-0.028062297,-0.06565836,0.107028134,0.02801333,0.09385644,0.07539893,0.054289486,0.04934225,-0.019756885,0.028443873,0.108780496,-0.09255104,0.043100845,-0.06704296,-0.042498276,-0.012644687,0.051593363,-0.068441555,0.06987885,-0.11706482,-0.06405006,-0.042931437,0.06483445,-0.020553363,-0.026053598,-0.056613833,0.03766213,-0.0028351743,0.0181723,-0.06689232,0.032316156,0.021242863,0.058888014,-0.06334457,0.05250663,-0.030401902,0.03003802,0.102391854,-0.091732375,-0.02237792,0.036453746,0.055858996,-0.05574183,-0.06217353,0.07686621,-0.01570515,-0.057695325,0.06374226,-0.028100282,-0.073839374,0.025941698,-0.0043677585,-0.04010943,0.039251328,0.011595033,-0.016978823,-0.03371556,0.015778484,0.06793275,0.0141059775,-0.08902045,0.0018438274,-1.3015814e-08,0.040575374,-0.1235246,-0.005891595,-0.038633954,0.033693567,-0.02682066,-0.022284329,-0.0009771289,-0.032188207,0.060305733,0.04507389,-0.028876167,0.0062470846,0.06265944,0.054917954,0.027815217,-0.05912433,0.090663515,-0.034248628,0.073200315,-0.024219276,0.027563367,-0.018159388,-0.0072508804,0.021015517,0.068916,0.07885753,0.092662185,-0.052182697,0.013831914,0.030555625,0.08011269,-0.10174422,0.034943152,-0.0406265,-0.007502593,-0.03294188,-0.02927565,-0.031589847,-0.05551415,-0.03856152,0.06742569,0.028546145,0.024927652,-0.0306758,0.01162456,0.025517698,0.031571053,-0.003015796,-0.030345753,-0.051762566,-0.02618045,0.087114595,0.002050408,0.060312446,-0.048982054,0.11680196,0.08897234,-0.01547906,-0.085394904,0.0042409855,-0.044679314,0.08395933,-0.013673851
